digraph Tree {
node [shape=box, style="filled", color="black", fontname="helvetica"] ;
edge [fontname="helvetica"] ;
0 [label="nARC <= 3.375\nsquared_error = 0.027\nsamples = 1175\nvalue = 0.695", fillcolor="#efaf82"] ;
1 [label="nSub <= 3.625\nsquared_error = 0.016\nsamples = 712\nvalue = 0.769", fillcolor="#eca470"] ;
0 -> 1 [labeldistance=2.5, labelangle=45, headlabel="True"] ;
2 [label="nARC <= 2.625\nsquared_error = 0.015\nsamples = 456\nvalue = 0.805", fillcolor="#eb9f67"] ;
1 -> 2 ;
3 [label="nSub <= 2.625\nsquared_error = 0.009\nsamples = 315\nvalue = 0.844", fillcolor="#ea995e"] ;
2 -> 3 ;
4 [label="nARC <= 2.125\nsquared_error = 0.009\nsamples = 192\nvalue = 0.877", fillcolor="#e99456"] ;
3 -> 4 ;
5 [label="nSub <= 1.875\nsquared_error = 0.004\nsamples = 132\nvalue = 0.913", fillcolor="#e88e4e"] ;
4 -> 5 ;
6 [label="nARC <= 1.875\nsquared_error = 0.004\nsamples = 78\nvalue = 0.94", fillcolor="#e78a47"] ;
5 -> 6 ;
7 [label="nARC <= 1.375\nsquared_error = 0.001\nsamples = 62\nvalue = 0.958", fillcolor="#e68743"] ;
6 -> 7 ;
8 [label="nSub <= 1.625\nsquared_error = 0.001\nsamples = 31\nvalue = 0.973", fillcolor="#e6853f"] ;
7 -> 8 ;
9 [label="nSub <= 1.375\nsquared_error = 0.0\nsamples = 24\nvalue = 0.985", fillcolor="#e5833d"] ;
8 -> 9 ;
10 [label="nSub <= 1.125\nsquared_error = 0.0\nsamples = 17\nvalue = 0.993", fillcolor="#e5823b"] ;
9 -> 10 ;
11 [label="nARC <= 1.125\nsquared_error = 0.0\nsamples = 8\nvalue = 0.997", fillcolor="#e5813a"] ;
10 -> 11 ;
12 [label="thARC <= 0.7\nsquared_error = 0.0\nsamples = 5\nvalue = 1.0", fillcolor="#e58139"] ;
11 -> 12 ;
13 [label="thARC <= 0.4\nsquared_error = 0.0\nsamples = 3\nvalue = 1.0", fillcolor="#e58139"] ;
12 -> 13 ;
14 [label="squared_error = 0.0\nsamples = 2\nvalue = 1.0", fillcolor="#e58139"] ;
13 -> 14 ;
15 [label="squared_error = -0.0\nsamples = 1\nvalue = 1.0", fillcolor="#e58139"] ;
13 -> 15 ;
16 [label="squared_error = 0.0\nsamples = 2\nvalue = 1.0", fillcolor="#e58139"] ;
12 -> 16 ;
17 [label="thARC <= 0.6\nsquared_error = 0.0\nsamples = 3\nvalue = 0.993", fillcolor="#e5823b"] ;
11 -> 17 ;
18 [label="thARC <= 0.2\nsquared_error = 0.0\nsamples = 2\nvalue = 0.998", fillcolor="#e5813a"] ;
17 -> 18 ;
19 [label="squared_error = 0.0\nsamples = 1\nvalue = 1.0", fillcolor="#e58139"] ;
18 -> 19 ;
20 [label="squared_error = -0.0\nsamples = 1\nvalue = 0.996", fillcolor="#e5823a"] ;
18 -> 20 ;
21 [label="squared_error = -0.0\nsamples = 1\nvalue = 0.984", fillcolor="#e5833d"] ;
17 -> 21 ;
22 [label="thARC <= 0.5\nsquared_error = 0.0\nsamples = 9\nvalue = 0.988", fillcolor="#e5833c"] ;
10 -> 22 ;
23 [label="thARC <= 0.3\nsquared_error = 0.0\nsamples = 5\nvalue = 0.988", fillcolor="#e5833c"] ;
22 -> 23 ;
24 [label="thARC <= 0.1\nsquared_error = 0.0\nsamples = 4\nvalue = 0.988", fillcolor="#e5833c"] ;
23 -> 24 ;
25 [label="squared_error = 0.0\nsamples = 2\nvalue = 0.988", fillcolor="#e5833c"] ;
24 -> 25 ;
26 [label="squared_error = 0.0\nsamples = 2\nvalue = 0.988", fillcolor="#e5833c"] ;
24 -> 26 ;
27 [label="squared_error = -0.0\nsamples = 1\nvalue = 0.988", fillcolor="#e5833c"] ;
23 -> 27 ;
28 [label="thARC <= 0.9\nsquared_error = 0.0\nsamples = 4\nvalue = 0.989", fillcolor="#e5833c"] ;
22 -> 28 ;
29 [label="thARC <= 0.7\nsquared_error = 0.0\nsamples = 3\nvalue = 0.989", fillcolor="#e5833c"] ;
28 -> 29 ;
30 [label="squared_error = 0.0\nsamples = 1\nvalue = 0.989", fillcolor="#e5833c"] ;
29 -> 30 ;
31 [label="squared_error = 0.0\nsamples = 2\nvalue = 0.989", fillcolor="#e5833c"] ;
29 -> 31 ;
32 [label="squared_error = 0.0\nsamples = 1\nvalue = 0.988", fillcolor="#e5833c"] ;
28 -> 32 ;
33 [label="thARC <= 0.5\nsquared_error = 0.0\nsamples = 7\nvalue = 0.967", fillcolor="#e68641"] ;
9 -> 33 ;
34 [label="thARC <= 0.3\nsquared_error = 0.0\nsamples = 4\nvalue = 0.962", fillcolor="#e68742"] ;
33 -> 34 ;
35 [label="nARC <= 1.125\nsquared_error = 0.0\nsamples = 3\nvalue = 0.961", fillcolor="#e68742"] ;
34 -> 35 ;
36 [label="thARC <= 0.1\nsquared_error = 0.0\nsamples = 2\nvalue = 0.96", fillcolor="#e68742"] ;
35 -> 36 ;
37 [label="squared_error = 0.0\nsamples = 1\nvalue = 0.96", fillcolor="#e68742"] ;
36 -> 37 ;
38 [label="squared_error = 0.0\nsamples = 1\nvalue = 0.96", fillcolor="#e68742"] ;
36 -> 38 ;
39 [label="squared_error = -0.0\nsamples = 1\nvalue = 0.961", fillcolor="#e68742"] ;
35 -> 39 ;
40 [label="squared_error = 0.0\nsamples = 1\nvalue = 0.965", fillcolor="#e68641"] ;
34 -> 40 ;
41 [label="thARC <= 0.9\nsquared_error = 0.0\nsamples = 3\nvalue = 0.974", fillcolor="#e6853f"] ;
33 -> 41 ;
42 [label="thARC <= 0.7\nsquared_error = 0.0\nsamples = 2\nvalue = 0.971", fillcolor="#e68540"] ;
41 -> 42 ;
43 [label="squared_error = 0.0\nsamples = 1\nvalue = 0.97", fillcolor="#e68640"] ;
42 -> 43 ;
44 [label="squared_error = 0.0\nsamples = 1\nvalue = 0.973", fillcolor="#e6853f"] ;
42 -> 44 ;
45 [label="squared_error = -0.0\nsamples = 1\nvalue = 0.979", fillcolor="#e6843e"] ;
41 -> 45 ;
46 [label="nARC <= 1.125\nsquared_error = 0.0\nsamples = 7\nvalue = 0.931", fillcolor="#e78c4a"] ;
8 -> 46 ;
47 [label="thARC <= 0.5\nsquared_error = 0.0\nsamples = 4\nvalue = 0.926", fillcolor="#e78c4b"] ;
46 -> 47 ;
48 [label="squared_error = 0.0\nsamples = 1\nvalue = 0.927", fillcolor="#e78c4a"] ;
47 -> 48 ;
49 [label="thARC <= 0.7\nsquared_error = 0.0\nsamples = 3\nvalue = 0.926", fillcolor="#e78c4b"] ;
47 -> 49 ;
50 [label="squared_error = 0.0\nsamples = 1\nvalue = 0.926", fillcolor="#e78c4b"] ;
49 -> 50 ;
51 [label="thARC <= 0.9\nsquared_error = 0.0\nsamples = 2\nvalue = 0.926", fillcolor="#e78c4b"] ;
49 -> 51 ;
52 [label="squared_error = 0.0\nsamples = 1\nvalue = 0.926", fillcolor="#e78c4b"] ;
51 -> 52 ;
53 [label="squared_error = 0.0\nsamples = 1\nvalue = 0.926", fillcolor="#e78c4b"] ;
51 -> 53 ;
54 [label="thARC <= 0.6\nsquared_error = 0.0\nsamples = 3\nvalue = 0.937", fillcolor="#e78b48"] ;
46 -> 54 ;
55 [label="thARC <= 0.3\nsquared_error = 0.0\nsamples = 2\nvalue = 0.931", fillcolor="#e78b49"] ;
54 -> 55 ;
56 [label="squared_error = 0.0\nsamples = 1\nvalue = 0.928", fillcolor="#e78c4a"] ;
55 -> 56 ;
57 [label="squared_error = 0.0\nsamples = 1\nvalue = 0.934", fillcolor="#e78b49"] ;
55 -> 57 ;
58 [label="squared_error = -0.0\nsamples = 1\nvalue = 0.949", fillcolor="#e78945"] ;
54 -> 58 ;
59 [label="thARC <= 0.5\nsquared_error = 0.001\nsamples = 31\nvalue = 0.944", fillcolor="#e78a46"] ;
7 -> 59 ;
60 [label="nSub <= 1.625\nsquared_error = 0.001\nsamples = 13\nvalue = 0.966", fillcolor="#e68641"] ;
59 -> 60 ;
61 [label="thARC <= 0.3\nsquared_error = 0.0\nsamples = 11\nvalue = 0.973", fillcolor="#e6853f"] ;
60 -> 61 ;
62 [label="nSub <= 1.375\nsquared_error = 0.0\nsamples = 8\nvalue = 0.98", fillcolor="#e6843e"] ;
61 -> 62 ;
63 [label="thARC <= 0.1\nsquared_error = 0.0\nsamples = 5\nvalue = 0.993", fillcolor="#e5823b"] ;
62 -> 63 ;
64 [label="nSub <= 1.125\nsquared_error = 0.0\nsamples = 3\nvalue = 0.996", fillcolor="#e5823a"] ;
63 -> 64 ;
65 [label="squared_error = 0.0\nsamples = 2\nvalue = 1.0", fillcolor="#e58139"] ;
64 -> 65 ;
66 [label="squared_error = -0.0\nsamples = 1\nvalue = 0.988", fillcolor="#e5833c"] ;
64 -> 66 ;
67 [label="nARC <= 1.625\nsquared_error = 0.0\nsamples = 2\nvalue = 0.989", fillcolor="#e5833c"] ;
63 -> 67 ;
68 [label="squared_error = 0.0\nsamples = 1\nvalue = 0.994", fillcolor="#e5823a"] ;
67 -> 68 ;
69 [label="squared_error = 0.0\nsamples = 1\nvalue = 0.984", fillcolor="#e5833d"] ;
67 -> 69 ;
70 [label="thARC <= 0.1\nsquared_error = 0.0\nsamples = 3\nvalue = 0.959", fillcolor="#e68743"] ;
62 -> 70 ;
71 [label="squared_error = 0.0\nsamples = 2\nvalue = 0.96", fillcolor="#e68742"] ;
70 -> 71 ;
72 [label="squared_error = -0.0\nsamples = 1\nvalue = 0.957", fillcolor="#e68843"] ;
70 -> 72 ;
73 [label="nSub <= 1.125\nsquared_error = 0.0\nsamples = 3\nvalue = 0.953", fillcolor="#e68844"] ;
61 -> 73 ;
74 [label="squared_error = 0.0\nsamples = 1\nvalue = 0.943", fillcolor="#e78a47"] ;
73 -> 74 ;
75 [label="nARC <= 1.625\nsquared_error = 0.0\nsamples = 2\nvalue = 0.958", fillcolor="#e68743"] ;
73 -> 75 ;
76 [label="squared_error = 0.0\nsamples = 1\nvalue = 0.962", fillcolor="#e68742"] ;
75 -> 76 ;
77 [label="squared_error = 0.0\nsamples = 1\nvalue = 0.955", fillcolor="#e68844"] ;
75 -> 77 ;
78 [label="thARC <= 0.1\nsquared_error = 0.0\nsamples = 2\nvalue = 0.927", fillcolor="#e78c4a"] ;
60 -> 78 ;
79 [label="squared_error = 0.0\nsamples = 1\nvalue = 0.926", fillcolor="#e78c4b"] ;
78 -> 79 ;
80 [label="squared_error = 0.0\nsamples = 1\nvalue = 0.929", fillcolor="#e78c4a"] ;
78 -> 80 ;
81 [label="nARC <= 1.625\nsquared_error = 0.001\nsamples = 18\nvalue = 0.928", fillcolor="#e78c4a"] ;
59 -> 81 ;
82 [label="nSub <= 1.125\nsquared_error = 0.0\nsamples = 11\nvalue = 0.948", fillcolor="#e78945"] ;
81 -> 82 ;
83 [label="thARC <= 0.9\nsquared_error = 0.0\nsamples = 3\nvalue = 0.928", fillcolor="#e78c4a"] ;
82 -> 83 ;
84 [label="thARC <= 0.7\nsquared_error = 0.0\nsamples = 2\nvalue = 0.942", fillcolor="#e78a47"] ;
83 -> 84 ;
85 [label="squared_error = 0.0\nsamples = 1\nvalue = 0.955", fillcolor="#e68844"] ;
84 -> 85 ;
86 [label="squared_error = -0.0\nsamples = 1\nvalue = 0.929", fillcolor="#e78c4a"] ;
84 -> 86 ;
87 [label="squared_error = 0.0\nsamples = 1\nvalue = 0.902", fillcolor="#e89050"] ;
83 -> 87 ;
88 [label="nSub <= 1.625\nsquared_error = 0.0\nsamples = 8\nvalue = 0.955", fillcolor="#e68844"] ;
82 -> 88 ;
89 [label="thARC <= 0.7\nsquared_error = 0.0\nsamples = 6\nvalue = 0.958", fillcolor="#e68743"] ;
88 -> 89 ;
90 [label="nSub <= 1.375\nsquared_error = 0.0\nsamples = 2\nvalue = 0.964", fillcolor="#e68641"] ;
89 -> 90 ;
91 [label="squared_error = 0.0\nsamples = 1\nvalue = 0.969", fillcolor="#e68640"] ;
90 -> 91 ;
92 [label="squared_error = -0.0\nsamples = 1\nvalue = 0.96", fillcolor="#e68743"] ;
90 -> 92 ;
93 [label="nSub <= 1.375\nsquared_error = 0.0\nsamples = 4\nvalue = 0.954", fillcolor="#e68844"] ;
89 -> 93 ;
94 [label="squared_error = 0.0\nsamples = 2\nvalue = 0.949", fillcolor="#e78945"] ;
93 -> 94 ;
95 [label="squared_error = 0.0\nsamples = 2\nvalue = 0.96", fillcolor="#e68743"] ;
93 -> 95 ;
96 [label="thARC <= 0.7\nsquared_error = 0.0\nsamples = 2\nvalue = 0.946", fillcolor="#e78946"] ;
88 -> 96 ;
97 [label="squared_error = 0.0\nsamples = 1\nvalue = 0.941", fillcolor="#e78a47"] ;
96 -> 97 ;
98 [label="squared_error = 0.0\nsamples = 1\nvalue = 0.952", fillcolor="#e78845"] ;
96 -> 98 ;
99 [label="nSub <= 1.375\nsquared_error = 0.001\nsamples = 7\nvalue = 0.897", fillcolor="#e89152"] ;
81 -> 99 ;
100 [label="thARC <= 0.7\nsquared_error = 0.0\nsamples = 3\nvalue = 0.861", fillcolor="#e9965a"] ;
99 -> 100 ;
101 [label="squared_error = 0.0\nsamples = 1\nvalue = 0.889", fillcolor="#e89253"] ;
100 -> 101 ;
102 [label="nSub <= 1.125\nsquared_error = 0.0\nsamples = 2\nvalue = 0.846", fillcolor="#ea985e"] ;
100 -> 102 ;
103 [label="squared_error = 0.0\nsamples = 1\nvalue = 0.835", fillcolor="#ea9a60"] ;
102 -> 103 ;
104 [label="squared_error = 0.0\nsamples = 1\nvalue = 0.858", fillcolor="#e9975b"] ;
102 -> 104 ;
105 [label="thARC <= 0.7\nsquared_error = 0.0\nsamples = 4\nvalue = 0.924", fillcolor="#e78d4b"] ;
99 -> 105 ;
106 [label="squared_error = 0.0\nsamples = 1\nvalue = 0.93", fillcolor="#e78c4a"] ;
105 -> 106 ;
107 [label="nSub <= 1.625\nsquared_error = 0.0\nsamples = 3\nvalue = 0.922", fillcolor="#e78d4c"] ;
105 -> 107 ;
108 [label="squared_error = 0.0\nsamples = 1\nvalue = 0.914", fillcolor="#e88e4d"] ;
107 -> 108 ;
109 [label="thARC <= 0.9\nsquared_error = 0.0\nsamples = 2\nvalue = 0.926", fillcolor="#e78c4b"] ;
107 -> 109 ;
110 [label="squared_error = 0.0\nsamples = 1\nvalue = 0.926", fillcolor="#e78c4b"] ;
109 -> 110 ;
111 [label="squared_error = 0.0\nsamples = 1\nvalue = 0.926", fillcolor="#e78c4b"] ;
109 -> 111 ;
112 [label="thARC <= 0.5\nsquared_error = 0.008\nsamples = 16\nvalue = 0.867", fillcolor="#e99559"] ;
6 -> 112 ;
113 [label="nSub <= 1.625\nsquared_error = 0.001\nsamples = 7\nvalue = 0.948", fillcolor="#e78945"] ;
112 -> 113 ;
114 [label="thARC <= 0.3\nsquared_error = 0.001\nsamples = 5\nvalue = 0.957", fillcolor="#e68843"] ;
113 -> 114 ;
115 [label="thARC <= 0.1\nsquared_error = 0.0\nsamples = 4\nvalue = 0.968", fillcolor="#e68641"] ;
114 -> 115 ;
116 [label="squared_error = 0.0\nsamples = 1\nvalue = 0.988", fillcolor="#e5833c"] ;
115 -> 116 ;
117 [label="nSub <= 1.375\nsquared_error = 0.0\nsamples = 3\nvalue = 0.961", fillcolor="#e68742"] ;
115 -> 117 ;
118 [label="nSub <= 1.125\nsquared_error = 0.0\nsamples = 2\nvalue = 0.967", fillcolor="#e68641"] ;
117 -> 118 ;
119 [label="squared_error = 0.0\nsamples = 1\nvalue = 0.967", fillcolor="#e68641"] ;
118 -> 119 ;
120 [label="squared_error = 0.0\nsamples = 1\nvalue = 0.967", fillcolor="#e68641"] ;
118 -> 120 ;
121 [label="squared_error = 0.0\nsamples = 1\nvalue = 0.949", fillcolor="#e78945"] ;
117 -> 121 ;
122 [label="squared_error = 0.0\nsamples = 1\nvalue = 0.914", fillcolor="#e88e4d"] ;
114 -> 122 ;
123 [label="thARC <= 0.1\nsquared_error = 0.0\nsamples = 2\nvalue = 0.924", fillcolor="#e78d4b"] ;
113 -> 123 ;
124 [label="squared_error = 0.0\nsamples = 1\nvalue = 0.926", fillcolor="#e78c4b"] ;
123 -> 124 ;
125 [label="squared_error = 0.0\nsamples = 1\nvalue = 0.922", fillcolor="#e78d4c"] ;
123 -> 125 ;
126 [label="nSub <= 1.125\nsquared_error = 0.004\nsamples = 9\nvalue = 0.804", fillcolor="#eb9f68"] ;
112 -> 126 ;
127 [label="thARC <= 0.7\nsquared_error = 0.003\nsamples = 3\nvalue = 0.733", fillcolor="#edaa79"] ;
126 -> 127 ;
128 [label="squared_error = 0.0\nsamples = 1\nvalue = 0.8", fillcolor="#eb9f69"] ;
127 -> 128 ;
129 [label="thARC <= 0.9\nsquared_error = 0.001\nsamples = 2\nvalue = 0.699", fillcolor="#eeaf81"] ;
127 -> 129 ;
130 [label="squared_error = 0.0\nsamples = 1\nvalue = 0.724", fillcolor="#eeab7b"] ;
129 -> 130 ;
131 [label="squared_error = 0.0\nsamples = 1\nvalue = 0.675", fillcolor="#efb287"] ;
129 -> 131 ;
132 [label="nSub <= 1.625\nsquared_error = 0.001\nsamples = 6\nvalue = 0.84", fillcolor="#ea995f"] ;
126 -> 132 ;
133 [label="thARC <= 0.7\nsquared_error = 0.0\nsamples = 4\nvalue = 0.824", fillcolor="#eb9c63"] ;
132 -> 133 ;
134 [label="squared_error = 0.0\nsamples = 1\nvalue = 0.849", fillcolor="#ea985d"] ;
133 -> 134 ;
135 [label="nSub <= 1.375\nsquared_error = 0.0\nsamples = 3\nvalue = 0.815", fillcolor="#eb9d65"] ;
133 -> 135 ;
136 [label="squared_error = 0.0\nsamples = 1\nvalue = 0.793", fillcolor="#eba06a"] ;
135 -> 136 ;
137 [label="thARC <= 0.9\nsquared_error = 0.0\nsamples = 2\nvalue = 0.827", fillcolor="#ea9b62"] ;
135 -> 137 ;
138 [label="squared_error = 0.0\nsamples = 1\nvalue = 0.84", fillcolor="#ea995f"] ;
137 -> 138 ;
139 [label="squared_error = -0.0\nsamples = 1\nvalue = 0.813", fillcolor="#eb9d66"] ;
137 -> 139 ;
140 [label="thARC <= 0.8\nsquared_error = 0.0\nsamples = 2\nvalue = 0.873", fillcolor="#e99457"] ;
132 -> 140 ;
141 [label="squared_error = 0.0\nsamples = 1\nvalue = 0.888", fillcolor="#e99254"] ;
140 -> 141 ;
142 [label="squared_error = -0.0\nsamples = 1\nvalue = 0.857", fillcolor="#e9975b"] ;
140 -> 142 ;
143 [label="thARC <= 0.9\nsquared_error = 0.001\nsamples = 54\nvalue = 0.876", fillcolor="#e99457"] ;
5 -> 143 ;
144 [label="nSub <= 2.125\nsquared_error = 0.001\nsamples = 46\nvalue = 0.866", fillcolor="#e99559"] ;
143 -> 144 ;
145 [label="thARC <= 0.5\nsquared_error = 0.0\nsamples = 17\nvalue = 0.896", fillcolor="#e89152"] ;
144 -> 145 ;
146 [label="thARC <= 0.3\nsquared_error = 0.0\nsamples = 11\nvalue = 0.892", fillcolor="#e89153"] ;
145 -> 146 ;
147 [label="nARC <= 1.875\nsquared_error = 0.0\nsamples = 8\nvalue = 0.891", fillcolor="#e89253"] ;
146 -> 147 ;
148 [label="thARC <= 0.1\nsquared_error = 0.0\nsamples = 6\nvalue = 0.891", fillcolor="#e89253"] ;
147 -> 148 ;
149 [label="squared_error = 0.0\nsamples = 3\nvalue = 0.89", fillcolor="#e89253"] ;
148 -> 149 ;
150 [label="nARC <= 1.125\nsquared_error = 0.0\nsamples = 3\nvalue = 0.892", fillcolor="#e89153"] ;
148 -> 150 ;
151 [label="squared_error = 0.0\nsamples = 1\nvalue = 0.891", fillcolor="#e89253"] ;
150 -> 151 ;
152 [label="nARC <= 1.5\nsquared_error = 0.0\nsamples = 2\nvalue = 0.892", fillcolor="#e89153"] ;
150 -> 152 ;
153 [label="squared_error = 0.0\nsamples = 1\nvalue = 0.893", fillcolor="#e89153"] ;
152 -> 153 ;
154 [label="squared_error = -0.0\nsamples = 1\nvalue = 0.892", fillcolor="#e89153"] ;
152 -> 154 ;
155 [label="thARC <= 0.1\nsquared_error = 0.0\nsamples = 2\nvalue = 0.889", fillcolor="#e89253"] ;
147 -> 155 ;
156 [label="squared_error = 0.0\nsamples = 1\nvalue = 0.89", fillcolor="#e89253"] ;
155 -> 156 ;
157 [label="squared_error = 0.0\nsamples = 1\nvalue = 0.889", fillcolor="#e89254"] ;
155 -> 157 ;
158 [label="nARC <= 1.875\nsquared_error = 0.0\nsamples = 3\nvalue = 0.895", fillcolor="#e89152"] ;
146 -> 158 ;
159 [label="nARC <= 1.5\nsquared_error = 0.0\nsamples = 2\nvalue = 0.899", fillcolor="#e89051"] ;
158 -> 159 ;
160 [label="squared_error = 0.0\nsamples = 1\nvalue = 0.897", fillcolor="#e89152"] ;
159 -> 160 ;
161 [label="squared_error = 0.0\nsamples = 1\nvalue = 0.9", fillcolor="#e89051"] ;
159 -> 161 ;
162 [label="squared_error = 0.0\nsamples = 1\nvalue = 0.889", fillcolor="#e89254"] ;
158 -> 162 ;
163 [label="nARC <= 1.125\nsquared_error = 0.0\nsamples = 6\nvalue = 0.903", fillcolor="#e89050"] ;
145 -> 163 ;
164 [label="thARC <= 0.7\nsquared_error = 0.0\nsamples = 2\nvalue = 0.889", fillcolor="#e89254"] ;
163 -> 164 ;
165 [label="squared_error = 0.0\nsamples = 1\nvalue = 0.889", fillcolor="#e89254"] ;
164 -> 165 ;
166 [label="squared_error = -0.0\nsamples = 1\nvalue = 0.889", fillcolor="#e89254"] ;
164 -> 166 ;
167 [label="nARC <= 1.875\nsquared_error = 0.0\nsamples = 4\nvalue = 0.909", fillcolor="#e88f4f"] ;
163 -> 167 ;
168 [label="nARC <= 1.625\nsquared_error = 0.0\nsamples = 3\nvalue = 0.916", fillcolor="#e88e4d"] ;
167 -> 168 ;
169 [label="thARC <= 0.7\nsquared_error = 0.0\nsamples = 2\nvalue = 0.918", fillcolor="#e88d4d"] ;
168 -> 169 ;
170 [label="squared_error = 0.0\nsamples = 1\nvalue = 0.917", fillcolor="#e88e4d"] ;
169 -> 170 ;
171 [label="squared_error = 0.0\nsamples = 1\nvalue = 0.919", fillcolor="#e88d4c"] ;
169 -> 171 ;
172 [label="squared_error = 0.0\nsamples = 1\nvalue = 0.912", fillcolor="#e88e4e"] ;
168 -> 172 ;
173 [label="squared_error = -0.0\nsamples = 1\nvalue = 0.889", fillcolor="#e89254"] ;
167 -> 173 ;
174 [label="nSub <= 2.375\nsquared_error = 0.001\nsamples = 29\nvalue = 0.849", fillcolor="#ea985d"] ;
144 -> 174 ;
175 [label="thARC <= 0.7\nsquared_error = 0.0\nsamples = 13\nvalue = 0.863", fillcolor="#e9965a"] ;
174 -> 175 ;
176 [label="thARC <= 0.3\nsquared_error = 0.0\nsamples = 12\nvalue = 0.86", fillcolor="#e9965a"] ;
175 -> 176 ;
177 [label="nARC <= 1.125\nsquared_error = 0.0\nsamples = 7\nvalue = 0.854", fillcolor="#ea975c"] ;
176 -> 177 ;
178 [label="thARC <= 0.1\nsquared_error = 0.0\nsamples = 2\nvalue = 0.853", fillcolor="#ea975c"] ;
177 -> 178 ;
179 [label="squared_error = 0.0\nsamples = 1\nvalue = 0.854", fillcolor="#ea975c"] ;
178 -> 179 ;
180 [label="squared_error = 0.0\nsamples = 1\nvalue = 0.852", fillcolor="#ea975c"] ;
178 -> 180 ;
181 [label="thARC <= 0.1\nsquared_error = 0.0\nsamples = 5\nvalue = 0.855", fillcolor="#ea975c"] ;
177 -> 181 ;
182 [label="squared_error = -0.0\nsamples = 3\nvalue = 0.854", fillcolor="#ea975c"] ;
181 -> 182 ;
183 [label="nARC <= 1.375\nsquared_error = 0.0\nsamples = 2\nvalue = 0.855", fillcolor="#ea975b"] ;
181 -> 183 ;
184 [label="squared_error = 0.0\nsamples = 1\nvalue = 0.855", fillcolor="#ea975c"] ;
183 -> 184 ;
185 [label="squared_error = -0.0\nsamples = 1\nvalue = 0.856", fillcolor="#e9975b"] ;
183 -> 185 ;
186 [label="nARC <= 1.375\nsquared_error = 0.0\nsamples = 5\nvalue = 0.868", fillcolor="#e99558"] ;
176 -> 186 ;
187 [label="thARC <= 0.5\nsquared_error = 0.0\nsamples = 2\nvalue = 0.857", fillcolor="#e9975b"] ;
186 -> 187 ;
188 [label="squared_error = 0.0\nsamples = 1\nvalue = 0.862", fillcolor="#e9965a"] ;
187 -> 188 ;
189 [label="squared_error = 0.0\nsamples = 1\nvalue = 0.852", fillcolor="#ea975c"] ;
187 -> 189 ;
190 [label="thARC <= 0.5\nsquared_error = 0.0\nsamples = 3\nvalue = 0.876", fillcolor="#e99457"] ;
186 -> 190 ;
191 [label="nARC <= 1.875\nsquared_error = 0.0\nsamples = 2\nvalue = 0.869", fillcolor="#e99558"] ;
190 -> 191 ;
192 [label="squared_error = 0.0\nsamples = 1\nvalue = 0.872", fillcolor="#e99458"] ;
191 -> 192 ;
193 [label="squared_error = 0.0\nsamples = 1\nvalue = 0.867", fillcolor="#e99559"] ;
191 -> 193 ;
194 [label="squared_error = -0.0\nsamples = 1\nvalue = 0.889", fillcolor="#e89253"] ;
190 -> 194 ;
195 [label="squared_error = -0.0\nsamples = 1\nvalue = 0.899", fillcolor="#e89051"] ;
175 -> 195 ;
196 [label="thARC <= 0.5\nsquared_error = 0.001\nsamples = 16\nvalue = 0.837", fillcolor="#ea9a60"] ;
174 -> 196 ;
197 [label="thARC <= 0.3\nsquared_error = 0.0\nsamples = 10\nvalue = 0.825", fillcolor="#ea9c63"] ;
196 -> 197 ;
198 [label="thARC <= 0.1\nsquared_error = 0.0\nsamples = 6\nvalue = 0.819", fillcolor="#eb9d64"] ;
197 -> 198 ;
199 [label="nARC <= 1.25\nsquared_error = 0.0\nsamples = 4\nvalue = 0.816", fillcolor="#eb9d65"] ;
198 -> 199 ;
200 [label="squared_error = 0.0\nsamples = 1\nvalue = 0.816", fillcolor="#eb9d65"] ;
199 -> 200 ;
201 [label="squared_error = 0.0\nsamples = 3\nvalue = 0.816", fillcolor="#eb9d65"] ;
199 -> 201 ;
202 [label="nARC <= 1.875\nsquared_error = 0.0\nsamples = 2\nvalue = 0.823", fillcolor="#eb9c63"] ;
198 -> 202 ;
203 [label="squared_error = 0.0\nsamples = 1\nvalue = 0.823", fillcolor="#eb9c63"] ;
202 -> 203 ;
204 [label="squared_error = 0.0\nsamples = 1\nvalue = 0.823", fillcolor="#eb9c63"] ;
202 -> 204 ;
205 [label="nARC <= 1.25\nsquared_error = 0.0\nsamples = 4\nvalue = 0.835", fillcolor="#ea9a60"] ;
197 -> 205 ;
206 [label="squared_error = 0.0\nsamples = 1\nvalue = 0.816", fillcolor="#eb9d65"] ;
205 -> 206 ;
207 [label="nARC <= 1.625\nsquared_error = 0.0\nsamples = 3\nvalue = 0.841", fillcolor="#ea995f"] ;
205 -> 207 ;
208 [label="squared_error = 0.0\nsamples = 1\nvalue = 0.837", fillcolor="#ea9a60"] ;
207 -> 208 ;
209 [label="nARC <= 1.875\nsquared_error = 0.0\nsamples = 2\nvalue = 0.843", fillcolor="#ea995f"] ;
207 -> 209 ;
210 [label="squared_error = 0.0\nsamples = 1\nvalue = 0.843", fillcolor="#ea995f"] ;
209 -> 210 ;
211 [label="squared_error = 0.0\nsamples = 1\nvalue = 0.843", fillcolor="#ea995f"] ;
209 -> 211 ;
212 [label="nARC <= 1.375\nsquared_error = 0.001\nsamples = 6\nvalue = 0.858", fillcolor="#e9975b"] ;
196 -> 212 ;
213 [label="nARC <= 1.125\nsquared_error = 0.0\nsamples = 3\nvalue = 0.837", fillcolor="#ea9a60"] ;
212 -> 213 ;
214 [label="squared_error = 0.0\nsamples = 1\nvalue = 0.816", fillcolor="#eb9d65"] ;
213 -> 214 ;
215 [label="thARC <= 0.7\nsquared_error = 0.0\nsamples = 2\nvalue = 0.848", fillcolor="#ea985d"] ;
213 -> 215 ;
216 [label="squared_error = 0.0\nsamples = 1\nvalue = 0.84", fillcolor="#ea995f"] ;
215 -> 216 ;
217 [label="squared_error = -0.0\nsamples = 1\nvalue = 0.856", fillcolor="#ea975b"] ;
215 -> 217 ;
218 [label="nARC <= 1.625\nsquared_error = 0.0\nsamples = 3\nvalue = 0.878", fillcolor="#e99356"] ;
212 -> 218 ;
219 [label="squared_error = 0.0\nsamples = 1\nvalue = 0.89", fillcolor="#e89253"] ;
218 -> 219 ;
220 [label="nARC <= 1.875\nsquared_error = 0.0\nsamples = 2\nvalue = 0.872", fillcolor="#e99458"] ;
218 -> 220 ;
221 [label="squared_error = 0.0\nsamples = 1\nvalue = 0.873", fillcolor="#e99457"] ;
220 -> 221 ;
222 [label="squared_error = 0.0\nsamples = 1\nvalue = 0.871", fillcolor="#e99558"] ;
220 -> 222 ;
223 [label="nARC <= 1.375\nsquared_error = 0.0\nsamples = 8\nvalue = 0.93", fillcolor="#e78c4a"] ;
143 -> 223 ;
224 [label="nSub <= 2.125\nsquared_error = 0.0\nsamples = 2\nvalue = 0.897", fillcolor="#e89152"] ;
223 -> 224 ;
225 [label="squared_error = 0.0\nsamples = 1\nvalue = 0.889", fillcolor="#e89254"] ;
224 -> 225 ;
226 [label="squared_error = 0.0\nsamples = 1\nvalue = 0.905", fillcolor="#e88f50"] ;
224 -> 226 ;
227 [label="nSub <= 2.375\nsquared_error = 0.0\nsamples = 6\nvalue = 0.941", fillcolor="#e78a47"] ;
223 -> 227 ;
228 [label="nARC <= 1.625\nsquared_error = 0.0\nsamples = 4\nvalue = 0.945", fillcolor="#e78946"] ;
227 -> 228 ;
229 [label="nSub <= 2.125\nsquared_error = 0.0\nsamples = 2\nvalue = 0.947", fillcolor="#e78946"] ;
228 -> 229 ;
230 [label="squared_error = 0.0\nsamples = 1\nvalue = 0.954", fillcolor="#e68844"] ;
229 -> 230 ;
231 [label="squared_error = -0.0\nsamples = 1\nvalue = 0.941", fillcolor="#e78a47"] ;
229 -> 231 ;
232 [label="nSub <= 2.125\nsquared_error = 0.0\nsamples = 2\nvalue = 0.942", fillcolor="#e78a47"] ;
228 -> 232 ;
233 [label="squared_error = 0.0\nsamples = 1\nvalue = 0.939", fillcolor="#e78a47"] ;
232 -> 233 ;
234 [label="squared_error = -0.0\nsamples = 1\nvalue = 0.944", fillcolor="#e78946"] ;
232 -> 234 ;
235 [label="nARC <= 1.625\nsquared_error = 0.0\nsamples = 2\nvalue = 0.933", fillcolor="#e78b49"] ;
227 -> 235 ;
236 [label="squared_error = 0.0\nsamples = 1\nvalue = 0.923", fillcolor="#e78d4b"] ;
235 -> 236 ;
237 [label="squared_error = 0.0\nsamples = 1\nvalue = 0.943", fillcolor="#e78a47"] ;
235 -> 237 ;
238 [label="thARC <= 0.5\nsquared_error = 0.012\nsamples = 60\nvalue = 0.798", fillcolor="#eba069"] ;
4 -> 238 ;
239 [label="thARC <= 0.3\nsquared_error = 0.004\nsamples = 28\nvalue = 0.875", fillcolor="#e99457"] ;
238 -> 239 ;
240 [label="nSub <= 1.875\nsquared_error = 0.004\nsamples = 20\nvalue = 0.896", fillcolor="#e89152"] ;
239 -> 240 ;
241 [label="thARC <= 0.1\nsquared_error = 0.001\nsamples = 9\nvalue = 0.953", fillcolor="#e68844"] ;
240 -> 241 ;
242 [label="nSub <= 1.375\nsquared_error = 0.0\nsamples = 4\nvalue = 0.987", fillcolor="#e5833c"] ;
241 -> 242 ;
243 [label="nSub <= 1.125\nsquared_error = 0.0\nsamples = 3\nvalue = 0.996", fillcolor="#e5823a"] ;
242 -> 243 ;
244 [label="squared_error = 0.0\nsamples = 2\nvalue = 1.0", fillcolor="#e58139"] ;
243 -> 244 ;
245 [label="squared_error = -0.0\nsamples = 1\nvalue = 0.988", fillcolor="#e5833c"] ;
243 -> 245 ;
246 [label="squared_error = -0.0\nsamples = 1\nvalue = 0.96", fillcolor="#e68742"] ;
242 -> 246 ;
247 [label="nSub <= 1.125\nsquared_error = 0.0\nsamples = 5\nvalue = 0.925", fillcolor="#e78c4b"] ;
241 -> 247 ;
248 [label="squared_error = 0.0\nsamples = 1\nvalue = 0.907", fillcolor="#e88f4f"] ;
247 -> 248 ;
249 [label="nSub <= 1.625\nsquared_error = 0.0\nsamples = 4\nvalue = 0.929", fillcolor="#e78c4a"] ;
247 -> 249 ;
250 [label="nARC <= 2.375\nsquared_error = 0.0\nsamples = 3\nvalue = 0.935", fillcolor="#e78b49"] ;
249 -> 250 ;
251 [label="nSub <= 1.375\nsquared_error = 0.0\nsamples = 2\nvalue = 0.942", fillcolor="#e78a47"] ;
250 -> 251 ;
252 [label="squared_error = 0.0\nsamples = 1\nvalue = 0.948", fillcolor="#e78945"] ;
251 -> 252 ;
253 [label="squared_error = 0.0\nsamples = 1\nvalue = 0.935", fillcolor="#e78b48"] ;
251 -> 253 ;
254 [label="squared_error = 0.0\nsamples = 1\nvalue = 0.921", fillcolor="#e78d4c"] ;
250 -> 254 ;
255 [label="squared_error = -0.0\nsamples = 1\nvalue = 0.913", fillcolor="#e88e4e"] ;
249 -> 255 ;
256 [label="nSub <= 2.125\nsquared_error = 0.001\nsamples = 11\nvalue = 0.85", fillcolor="#ea985d"] ;
240 -> 256 ;
257 [label="thARC <= 0.1\nsquared_error = 0.0\nsamples = 4\nvalue = 0.884", fillcolor="#e99355"] ;
256 -> 257 ;
258 [label="squared_error = 0.0\nsamples = 2\nvalue = 0.89", fillcolor="#e89253"] ;
257 -> 258 ;
259 [label="nARC <= 2.375\nsquared_error = 0.0\nsamples = 2\nvalue = 0.877", fillcolor="#e99456"] ;
257 -> 259 ;
260 [label="squared_error = 0.0\nsamples = 1\nvalue = 0.882", fillcolor="#e99355"] ;
259 -> 260 ;
261 [label="squared_error = 0.0\nsamples = 1\nvalue = 0.872", fillcolor="#e99458"] ;
259 -> 261 ;
262 [label="nSub <= 2.375\nsquared_error = 0.0\nsamples = 7\nvalue = 0.832", fillcolor="#ea9b61"] ;
256 -> 262 ;
263 [label="nARC <= 2.375\nsquared_error = 0.0\nsamples = 3\nvalue = 0.85", fillcolor="#ea985d"] ;
262 -> 263 ;
264 [label="thARC <= 0.1\nsquared_error = 0.0\nsamples = 2\nvalue = 0.853", fillcolor="#ea975c"] ;
263 -> 264 ;
265 [label="squared_error = 0.0\nsamples = 1\nvalue = 0.854", fillcolor="#ea975c"] ;
264 -> 265 ;
266 [label="squared_error = -0.0\nsamples = 1\nvalue = 0.852", fillcolor="#ea975c"] ;
264 -> 266 ;
267 [label="squared_error = 0.0\nsamples = 1\nvalue = 0.845", fillcolor="#ea995e"] ;
263 -> 267 ;
268 [label="thARC <= 0.1\nsquared_error = 0.0\nsamples = 4\nvalue = 0.818", fillcolor="#eb9d65"] ;
262 -> 268 ;
269 [label="squared_error = 0.0\nsamples = 2\nvalue = 0.816", fillcolor="#eb9d65"] ;
268 -> 269 ;
270 [label="nARC <= 2.375\nsquared_error = 0.0\nsamples = 2\nvalue = 0.819", fillcolor="#eb9d64"] ;
268 -> 270 ;
271 [label="squared_error = 0.0\nsamples = 1\nvalue = 0.821", fillcolor="#eb9c64"] ;
270 -> 271 ;
272 [label="squared_error = 0.0\nsamples = 1\nvalue = 0.816", fillcolor="#eb9d65"] ;
270 -> 272 ;
273 [label="nSub <= 1.25\nsquared_error = 0.001\nsamples = 8\nvalue = 0.821", fillcolor="#eb9c64"] ;
239 -> 273 ;
274 [label="nARC <= 2.375\nsquared_error = 0.002\nsamples = 2\nvalue = 0.775", fillcolor="#eca36f"] ;
273 -> 274 ;
275 [label="squared_error = 0.0\nsamples = 1\nvalue = 0.817", fillcolor="#eb9d65"] ;
274 -> 275 ;
276 [label="squared_error = -0.0\nsamples = 1\nvalue = 0.734", fillcolor="#eda979"] ;
274 -> 276 ;
277 [label="nARC <= 2.375\nsquared_error = 0.0\nsamples = 6\nvalue = 0.836", fillcolor="#ea9a60"] ;
273 -> 277 ;
278 [label="nSub <= 1.875\nsquared_error = 0.0\nsamples = 2\nvalue = 0.864", fillcolor="#e9965a"] ;
277 -> 278 ;
279 [label="squared_error = 0.0\nsamples = 1\nvalue = 0.875", fillcolor="#e99457"] ;
278 -> 279 ;
280 [label="squared_error = 0.0\nsamples = 1\nvalue = 0.852", fillcolor="#ea975c"] ;
278 -> 280 ;
281 [label="nSub <= 1.625\nsquared_error = 0.0\nsamples = 4\nvalue = 0.822", fillcolor="#eb9c63"] ;
277 -> 281 ;
282 [label="squared_error = 0.0\nsamples = 1\nvalue = 0.814", fillcolor="#eb9d65"] ;
281 -> 282 ;
283 [label="nSub <= 2.25\nsquared_error = 0.0\nsamples = 3\nvalue = 0.825", fillcolor="#ea9c63"] ;
281 -> 283 ;
284 [label="nSub <= 1.875\nsquared_error = 0.0\nsamples = 2\nvalue = 0.829", fillcolor="#ea9b62"] ;
283 -> 284 ;
285 [label="squared_error = 0.0\nsamples = 1\nvalue = 0.828", fillcolor="#ea9b62"] ;
284 -> 285 ;
286 [label="squared_error = 0.0\nsamples = 1\nvalue = 0.83", fillcolor="#ea9b61"] ;
284 -> 286 ;
287 [label="squared_error = -0.0\nsamples = 1\nvalue = 0.816", fillcolor="#eb9d65"] ;
283 -> 287 ;
288 [label="nSub <= 1.625\nsquared_error = 0.01\nsamples = 32\nvalue = 0.732", fillcolor="#edaa79"] ;
238 -> 288 ;
289 [label="thARC <= 0.7\nsquared_error = 0.007\nsamples = 15\nvalue = 0.653", fillcolor="#f0b68c"] ;
288 -> 289 ;
290 [label="nARC <= 2.375\nsquared_error = 0.002\nsamples = 5\nvalue = 0.729", fillcolor="#edaa7a"] ;
289 -> 290 ;
291 [label="nSub <= 1.125\nsquared_error = 0.002\nsamples = 3\nvalue = 0.753", fillcolor="#eda674"] ;
290 -> 291 ;
292 [label="squared_error = 0.0\nsamples = 1\nvalue = 0.696", fillcolor="#efaf82"] ;
291 -> 292 ;
293 [label="nSub <= 1.375\nsquared_error = 0.0\nsamples = 2\nvalue = 0.782", fillcolor="#eca26d"] ;
291 -> 293 ;
294 [label="squared_error = 0.0\nsamples = 1\nvalue = 0.761", fillcolor="#eda572"] ;
293 -> 294 ;
295 [label="squared_error = 0.0\nsamples = 1\nvalue = 0.803", fillcolor="#eb9f68"] ;
293 -> 295 ;
296 [label="nSub <= 1.375\nsquared_error = 0.001\nsamples = 2\nvalue = 0.692", fillcolor="#efb082"] ;
290 -> 296 ;
297 [label="squared_error = 0.0\nsamples = 1\nvalue = 0.666", fillcolor="#efb489"] ;
296 -> 297 ;
298 [label="squared_error = 0.0\nsamples = 1\nvalue = 0.719", fillcolor="#eeac7c"] ;
296 -> 298 ;
299 [label="nSub <= 1.125\nsquared_error = 0.005\nsamples = 10\nvalue = 0.614", fillcolor="#f1bc95"] ;
289 -> 299 ;
300 [label="nARC <= 2.375\nsquared_error = 0.002\nsamples = 4\nvalue = 0.548", fillcolor="#f3c6a5"] ;
299 -> 300 ;
301 [label="thARC <= 0.9\nsquared_error = 0.0\nsamples = 2\nvalue = 0.592", fillcolor="#f2bf9a"] ;
300 -> 301 ;
302 [label="squared_error = 0.0\nsamples = 1\nvalue = 0.613", fillcolor="#f1bc95"] ;
301 -> 302 ;
303 [label="squared_error = 0.0\nsamples = 1\nvalue = 0.572", fillcolor="#f2c29f"] ;
301 -> 303 ;
304 [label="thARC <= 0.9\nsquared_error = 0.0\nsamples = 2\nvalue = 0.503", fillcolor="#f5ccb0"] ;
300 -> 304 ;
305 [label="squared_error = 0.0\nsamples = 1\nvalue = 0.515", fillcolor="#f4cbad"] ;
304 -> 305 ;
306 [label="squared_error = 0.0\nsamples = 1\nvalue = 0.491", fillcolor="#f5ceb2"] ;
304 -> 306 ;
307 [label="nARC <= 2.375\nsquared_error = 0.002\nsamples = 6\nvalue = 0.659", fillcolor="#f0b58a"] ;
299 -> 307 ;
308 [label="nSub <= 1.375\nsquared_error = 0.001\nsamples = 3\nvalue = 0.688", fillcolor="#efb083"] ;
307 -> 308 ;
309 [label="thARC <= 0.9\nsquared_error = 0.0\nsamples = 2\nvalue = 0.672", fillcolor="#efb387"] ;
308 -> 309 ;
310 [label="squared_error = 0.0\nsamples = 1\nvalue = 0.69", fillcolor="#efb083"] ;
309 -> 310 ;
311 [label="squared_error = 0.0\nsamples = 1\nvalue = 0.654", fillcolor="#f0b68c"] ;
309 -> 311 ;
312 [label="squared_error = -0.0\nsamples = 1\nvalue = 0.721", fillcolor="#eeab7c"] ;
308 -> 312 ;
313 [label="nSub <= 1.375\nsquared_error = 0.001\nsamples = 3\nvalue = 0.63", fillcolor="#f1b991"] ;
307 -> 313 ;
314 [label="squared_error = 0.0\nsamples = 1\nvalue = 0.593", fillcolor="#f2bf9a"] ;
313 -> 314 ;
315 [label="thARC <= 0.9\nsquared_error = 0.0\nsamples = 2\nvalue = 0.648", fillcolor="#f0b78d"] ;
313 -> 315 ;
316 [label="squared_error = 0.0\nsamples = 1\nvalue = 0.658", fillcolor="#f0b58b"] ;
315 -> 316 ;
317 [label="squared_error = -0.0\nsamples = 1\nvalue = 0.638", fillcolor="#f0b88f"] ;
315 -> 317 ;
318 [label="nARC <= 2.375\nsquared_error = 0.002\nsamples = 17\nvalue = 0.802", fillcolor="#eb9f68"] ;
288 -> 318 ;
319 [label="nSub <= 2.125\nsquared_error = 0.0\nsamples = 7\nvalue = 0.842", fillcolor="#ea995f"] ;
318 -> 319 ;
320 [label="thARC <= 0.7\nsquared_error = 0.0\nsamples = 4\nvalue = 0.83", fillcolor="#ea9b62"] ;
319 -> 320 ;
321 [label="nSub <= 1.875\nsquared_error = 0.0\nsamples = 2\nvalue = 0.838", fillcolor="#ea9a60"] ;
320 -> 321 ;
322 [label="squared_error = 0.0\nsamples = 1\nvalue = 0.83", fillcolor="#ea9b62"] ;
321 -> 322 ;
323 [label="squared_error = -0.0\nsamples = 1\nvalue = 0.845", fillcolor="#ea985e"] ;
321 -> 323 ;
324 [label="thARC <= 0.9\nsquared_error = 0.0\nsamples = 2\nvalue = 0.823", fillcolor="#eb9c63"] ;
320 -> 324 ;
325 [label="squared_error = 0.0\nsamples = 1\nvalue = 0.828", fillcolor="#ea9b62"] ;
324 -> 325 ;
326 [label="squared_error = -0.0\nsamples = 1\nvalue = 0.818", fillcolor="#eb9d65"] ;
324 -> 326 ;
327 [label="thARC <= 0.9\nsquared_error = 0.0\nsamples = 3\nvalue = 0.858", fillcolor="#e9975b"] ;
319 -> 327 ;
328 [label="thARC <= 0.7\nsquared_error = 0.0\nsamples = 2\nvalue = 0.861", fillcolor="#e9965a"] ;
327 -> 328 ;
329 [label="squared_error = 0.0\nsamples = 1\nvalue = 0.853", fillcolor="#ea975c"] ;
328 -> 329 ;
330 [label="squared_error = 0.0\nsamples = 1\nvalue = 0.87", fillcolor="#e99558"] ;
328 -> 330 ;
331 [label="squared_error = 0.0\nsamples = 1\nvalue = 0.852", fillcolor="#ea975c"] ;
327 -> 331 ;
332 [label="nSub <= 2.125\nsquared_error = 0.002\nsamples = 10\nvalue = 0.773", fillcolor="#eca36f"] ;
318 -> 332 ;
333 [label="thARC <= 0.7\nsquared_error = 0.001\nsamples = 5\nvalue = 0.738", fillcolor="#eda978"] ;
332 -> 333 ;
334 [label="nSub <= 1.875\nsquared_error = 0.0\nsamples = 2\nvalue = 0.771", fillcolor="#eca470"] ;
333 -> 334 ;
335 [label="squared_error = 0.0\nsamples = 1\nvalue = 0.758", fillcolor="#eda673"] ;
334 -> 335 ;
336 [label="squared_error = 0.0\nsamples = 1\nvalue = 0.785", fillcolor="#eca26c"] ;
334 -> 336 ;
337 [label="nSub <= 1.875\nsquared_error = 0.0\nsamples = 3\nvalue = 0.716", fillcolor="#eeac7d"] ;
333 -> 337 ;
338 [label="thARC <= 0.9\nsquared_error = 0.0\nsamples = 2\nvalue = 0.702", fillcolor="#eeae80"] ;
337 -> 338 ;
339 [label="squared_error = 0.0\nsamples = 1\nvalue = 0.71", fillcolor="#eead7e"] ;
338 -> 339 ;
340 [label="squared_error = -0.0\nsamples = 1\nvalue = 0.694", fillcolor="#efaf82"] ;
338 -> 340 ;
341 [label="squared_error = -0.0\nsamples = 1\nvalue = 0.742", fillcolor="#eda876"] ;
337 -> 341 ;
342 [label="nSub <= 2.375\nsquared_error = 0.0\nsamples = 5\nvalue = 0.808", fillcolor="#eb9e67"] ;
332 -> 342 ;
343 [label="thARC <= 0.7\nsquared_error = 0.0\nsamples = 2\nvalue = 0.796", fillcolor="#eba06a"] ;
342 -> 343 ;
344 [label="squared_error = 0.0\nsamples = 1\nvalue = 0.804", fillcolor="#eb9f68"] ;
343 -> 344 ;
345 [label="squared_error = 0.0\nsamples = 1\nvalue = 0.788", fillcolor="#eca16c"] ;
343 -> 345 ;
346 [label="thARC <= 0.9\nsquared_error = 0.0\nsamples = 3\nvalue = 0.816", fillcolor="#eb9d65"] ;
342 -> 346 ;
347 [label="thARC <= 0.7\nsquared_error = 0.0\nsamples = 2\nvalue = 0.817", fillcolor="#eb9d65"] ;
346 -> 347 ;
348 [label="squared_error = 0.0\nsamples = 1\nvalue = 0.816", fillcolor="#eb9d65"] ;
347 -> 348 ;
349 [label="squared_error = 0.0\nsamples = 1\nvalue = 0.817", fillcolor="#eb9d65"] ;
347 -> 349 ;
350 [label="squared_error = 0.0\nsamples = 1\nvalue = 0.816", fillcolor="#eb9d65"] ;
346 -> 350 ;
351 [label="thARC <= 0.5\nsquared_error = 0.004\nsamples = 123\nvalue = 0.793", fillcolor="#eba06a"] ;
3 -> 351 ;
352 [label="nSub <= 3.125\nsquared_error = 0.001\nsamples = 57\nvalue = 0.75", fillcolor="#eda775"] ;
351 -> 352 ;
353 [label="nSub <= 2.875\nsquared_error = 0.0\nsamples = 29\nvalue = 0.775", fillcolor="#eca36f"] ;
352 -> 353 ;
354 [label="thARC <= 0.3\nsquared_error = 0.0\nsamples = 13\nvalue = 0.793", fillcolor="#eba06a"] ;
353 -> 354 ;
355 [label="thARC <= 0.1\nsquared_error = 0.0\nsamples = 8\nvalue = 0.784", fillcolor="#eca26c"] ;
354 -> 355 ;
356 [label="squared_error = 0.0\nsamples = 4\nvalue = 0.782", fillcolor="#eca26d"] ;
355 -> 356 ;
357 [label="nARC <= 1.75\nsquared_error = 0.0\nsamples = 4\nvalue = 0.787", fillcolor="#eca16c"] ;
355 -> 357 ;
358 [label="nARC <= 1.125\nsquared_error = 0.0\nsamples = 2\nvalue = 0.784", fillcolor="#eca26d"] ;
357 -> 358 ;
359 [label="squared_error = 0.0\nsamples = 1\nvalue = 0.782", fillcolor="#eca26d"] ;
358 -> 359 ;
360 [label="squared_error = 0.0\nsamples = 1\nvalue = 0.785", fillcolor="#eca26c"] ;
358 -> 360 ;
361 [label="nARC <= 2.375\nsquared_error = 0.0\nsamples = 2\nvalue = 0.789", fillcolor="#eca16b"] ;
357 -> 361 ;
362 [label="squared_error = 0.0\nsamples = 1\nvalue = 0.791", fillcolor="#eca16b"] ;
361 -> 362 ;
363 [label="squared_error = -0.0\nsamples = 1\nvalue = 0.788", fillcolor="#eca16c"] ;
361 -> 363 ;
364 [label="nARC <= 1.375\nsquared_error = 0.0\nsamples = 5\nvalue = 0.807", fillcolor="#eb9e67"] ;
354 -> 364 ;
365 [label="squared_error = 0.0\nsamples = 1\nvalue = 0.794", fillcolor="#eba06a"] ;
364 -> 365 ;
366 [label="nARC <= 2.375\nsquared_error = 0.0\nsamples = 4\nvalue = 0.81", fillcolor="#eb9e66"] ;
364 -> 366 ;
367 [label="nARC <= 1.75\nsquared_error = 0.0\nsamples = 3\nvalue = 0.813", fillcolor="#eb9d66"] ;
366 -> 367 ;
368 [label="squared_error = 0.0\nsamples = 1\nvalue = 0.805", fillcolor="#eb9f68"] ;
367 -> 368 ;
369 [label="nARC <= 2.125\nsquared_error = 0.0\nsamples = 2\nvalue = 0.816", fillcolor="#eb9d65"] ;
367 -> 369 ;
370 [label="squared_error = 0.0\nsamples = 1\nvalue = 0.818", fillcolor="#eb9d64"] ;
369 -> 370 ;
371 [label="squared_error = 0.0\nsamples = 1\nvalue = 0.815", fillcolor="#eb9d65"] ;
369 -> 371 ;
372 [label="squared_error = -0.0\nsamples = 1\nvalue = 0.804", fillcolor="#eb9f68"] ;
366 -> 372 ;
373 [label="thARC <= 0.3\nsquared_error = 0.0\nsamples = 16\nvalue = 0.76", fillcolor="#eda572"] ;
353 -> 373 ;
374 [label="thARC <= 0.1\nsquared_error = 0.0\nsamples = 11\nvalue = 0.753", fillcolor="#eda774"] ;
373 -> 374 ;
375 [label="squared_error = -0.0\nsamples = 6\nvalue = 0.75", fillcolor="#eda775"] ;
374 -> 375 ;
376 [label="nARC <= 1.75\nsquared_error = 0.0\nsamples = 5\nvalue = 0.756", fillcolor="#eda673"] ;
374 -> 376 ;
377 [label="nARC <= 1.375\nsquared_error = 0.0\nsamples = 3\nvalue = 0.753", fillcolor="#eda674"] ;
376 -> 377 ;
378 [label="nARC <= 1.125\nsquared_error = 0.0\nsamples = 2\nvalue = 0.752", fillcolor="#eda774"] ;
377 -> 378 ;
379 [label="squared_error = 0.0\nsamples = 1\nvalue = 0.75", fillcolor="#eda775"] ;
378 -> 379 ;
380 [label="squared_error = 0.0\nsamples = 1\nvalue = 0.753", fillcolor="#eda674"] ;
378 -> 380 ;
381 [label="squared_error = -0.0\nsamples = 1\nvalue = 0.756", fillcolor="#eda673"] ;
377 -> 381 ;
382 [label="nARC <= 2.125\nsquared_error = 0.0\nsamples = 2\nvalue = 0.761", fillcolor="#eca572"] ;
376 -> 382 ;
383 [label="squared_error = 0.0\nsamples = 1\nvalue = 0.761", fillcolor="#eca572"] ;
382 -> 383 ;
384 [label="squared_error = 0.0\nsamples = 1\nvalue = 0.762", fillcolor="#eca572"] ;
382 -> 384 ;
385 [label="nARC <= 1.75\nsquared_error = 0.0\nsamples = 5\nvalue = 0.775", fillcolor="#eca36f"] ;
373 -> 385 ;
386 [label="nARC <= 1.375\nsquared_error = 0.0\nsamples = 3\nvalue = 0.762", fillcolor="#eca572"] ;
385 -> 386 ;
387 [label="nARC <= 1.125\nsquared_error = 0.0\nsamples = 2\nvalue = 0.756", fillcolor="#eda673"] ;
386 -> 387 ;
388 [label="squared_error = 0.0\nsamples = 1\nvalue = 0.75", fillcolor="#eda775"] ;
387 -> 388 ;
389 [label="squared_error = 0.0\nsamples = 1\nvalue = 0.762", fillcolor="#eca572"] ;
387 -> 389 ;
390 [label="squared_error = 0.0\nsamples = 1\nvalue = 0.774", fillcolor="#eca36f"] ;
386 -> 390 ;
391 [label="nARC <= 2.125\nsquared_error = 0.0\nsamples = 2\nvalue = 0.793", fillcolor="#eba06a"] ;
385 -> 391 ;
392 [label="squared_error = 0.0\nsamples = 1\nvalue = 0.793", fillcolor="#eca16b"] ;
391 -> 392 ;
393 [label="squared_error = 0.0\nsamples = 1\nvalue = 0.794", fillcolor="#eba06a"] ;
391 -> 393 ;
394 [label="thARC <= 0.3\nsquared_error = 0.001\nsamples = 28\nvalue = 0.724", fillcolor="#eeab7b"] ;
352 -> 394 ;
395 [label="nSub <= 3.375\nsquared_error = 0.0\nsamples = 16\nvalue = 0.71", fillcolor="#eead7e"] ;
394 -> 395 ;
396 [label="thARC <= 0.1\nsquared_error = 0.0\nsamples = 8\nvalue = 0.723", fillcolor="#eeab7b"] ;
395 -> 396 ;
397 [label="squared_error = 0.0\nsamples = 4\nvalue = 0.72", fillcolor="#eeac7c"] ;
396 -> 397 ;
398 [label="nARC <= 1.625\nsquared_error = 0.0\nsamples = 4\nvalue = 0.727", fillcolor="#eeaa7a"] ;
396 -> 398 ;
399 [label="nARC <= 1.125\nsquared_error = 0.0\nsamples = 2\nvalue = 0.721", fillcolor="#eeab7b"] ;
398 -> 399 ;
400 [label="squared_error = 0.0\nsamples = 1\nvalue = 0.72", fillcolor="#eeac7c"] ;
399 -> 400 ;
401 [label="squared_error = 0.0\nsamples = 1\nvalue = 0.723", fillcolor="#eeab7b"] ;
399 -> 401 ;
402 [label="nARC <= 2.125\nsquared_error = 0.0\nsamples = 2\nvalue = 0.733", fillcolor="#edaa79"] ;
398 -> 402 ;
403 [label="squared_error = 0.0\nsamples = 1\nvalue = 0.732", fillcolor="#edaa79"] ;
402 -> 403 ;
404 [label="squared_error = 0.0\nsamples = 1\nvalue = 0.734", fillcolor="#eda979"] ;
402 -> 404 ;
405 [label="thARC <= 0.1\nsquared_error = 0.0\nsamples = 8\nvalue = 0.696", fillcolor="#efaf82"] ;
395 -> 405 ;
406 [label="squared_error = 0.0\nsamples = 3\nvalue = 0.691", fillcolor="#efb083"] ;
405 -> 406 ;
407 [label="nARC <= 1.625\nsquared_error = 0.0\nsamples = 5\nvalue = 0.699", fillcolor="#eeaf81"] ;
405 -> 407 ;
408 [label="nARC <= 1.375\nsquared_error = 0.0\nsamples = 3\nvalue = 0.695", fillcolor="#efaf82"] ;
407 -> 408 ;
409 [label="nARC <= 1.125\nsquared_error = 0.0\nsamples = 2\nvalue = 0.693", fillcolor="#efb082"] ;
408 -> 409 ;
410 [label="squared_error = 0.0\nsamples = 1\nvalue = 0.691", fillcolor="#efb083"] ;
409 -> 410 ;
411 [label="squared_error = -0.0\nsamples = 1\nvalue = 0.695", fillcolor="#efaf82"] ;
409 -> 411 ;
412 [label="squared_error = 0.0\nsamples = 1\nvalue = 0.698", fillcolor="#eeaf81"] ;
408 -> 412 ;
413 [label="nARC <= 2.125\nsquared_error = 0.0\nsamples = 2\nvalue = 0.705", fillcolor="#eeae7f"] ;
407 -> 413 ;
414 [label="squared_error = 0.0\nsamples = 1\nvalue = 0.702", fillcolor="#eeae80"] ;
413 -> 414 ;
415 [label="squared_error = 0.0\nsamples = 1\nvalue = 0.708", fillcolor="#eead7f"] ;
413 -> 415 ;
416 [label="nARC <= 1.625\nsquared_error = 0.0\nsamples = 12\nvalue = 0.744", fillcolor="#eda876"] ;
394 -> 416 ;
417 [label="nSub <= 3.375\nsquared_error = 0.0\nsamples = 5\nvalue = 0.724", fillcolor="#eeab7b"] ;
416 -> 417 ;
418 [label="nARC <= 1.375\nsquared_error = 0.0\nsamples = 3\nvalue = 0.732", fillcolor="#edaa79"] ;
417 -> 418 ;
419 [label="nARC <= 1.125\nsquared_error = 0.0\nsamples = 2\nvalue = 0.726", fillcolor="#eeab7a"] ;
418 -> 419 ;
420 [label="squared_error = 0.0\nsamples = 1\nvalue = 0.72", fillcolor="#eeac7c"] ;
419 -> 420 ;
421 [label="squared_error = 0.0\nsamples = 1\nvalue = 0.732", fillcolor="#edaa79"] ;
419 -> 421 ;
422 [label="squared_error = 0.0\nsamples = 1\nvalue = 0.745", fillcolor="#eda876"] ;
418 -> 422 ;
423 [label="nARC <= 1.375\nsquared_error = 0.0\nsamples = 2\nvalue = 0.711", fillcolor="#eead7e"] ;
417 -> 423 ;
424 [label="squared_error = 0.0\nsamples = 1\nvalue = 0.704", fillcolor="#eeae80"] ;
423 -> 424 ;
425 [label="squared_error = 0.0\nsamples = 1\nvalue = 0.718", fillcolor="#eeac7c"] ;
423 -> 425 ;
426 [label="nSub <= 3.375\nsquared_error = 0.0\nsamples = 7\nvalue = 0.759", fillcolor="#eda673"] ;
416 -> 426 ;
427 [label="nARC <= 1.875\nsquared_error = 0.0\nsamples = 4\nvalue = 0.768", fillcolor="#eca470"] ;
426 -> 427 ;
428 [label="squared_error = 0.0\nsamples = 1\nvalue = 0.758", fillcolor="#eda673"] ;
427 -> 428 ;
429 [label="nARC <= 2.125\nsquared_error = 0.0\nsamples = 3\nvalue = 0.771", fillcolor="#eca470"] ;
427 -> 429 ;
430 [label="squared_error = 0.0\nsamples = 1\nvalue = 0.768", fillcolor="#eca470"] ;
429 -> 430 ;
431 [label="nARC <= 2.375\nsquared_error = 0.0\nsamples = 2\nvalue = 0.773", fillcolor="#eca36f"] ;
429 -> 431 ;
432 [label="squared_error = 0.0\nsamples = 1\nvalue = 0.773", fillcolor="#eca36f"] ;
431 -> 432 ;
433 [label="squared_error = 0.0\nsamples = 1\nvalue = 0.772", fillcolor="#eca46f"] ;
431 -> 433 ;
434 [label="nARC <= 2.0\nsquared_error = 0.0\nsamples = 3\nvalue = 0.746", fillcolor="#eda876"] ;
426 -> 434 ;
435 [label="squared_error = 0.0\nsamples = 1\nvalue = 0.731", fillcolor="#edaa79"] ;
434 -> 435 ;
436 [label="nARC <= 2.375\nsquared_error = 0.0\nsamples = 2\nvalue = 0.754", fillcolor="#eda674"] ;
434 -> 436 ;
437 [label="squared_error = 0.0\nsamples = 1\nvalue = 0.752", fillcolor="#eda774"] ;
436 -> 437 ;
438 [label="squared_error = -0.0\nsamples = 1\nvalue = 0.755", fillcolor="#eda673"] ;
436 -> 438 ;
439 [label="nARC <= 1.375\nsquared_error = 0.004\nsamples = 66\nvalue = 0.83", fillcolor="#ea9b62"] ;
351 -> 439 ;
440 [label="nSub <= 3.125\nsquared_error = 0.002\nsamples = 21\nvalue = 0.759", fillcolor="#eda672"] ;
439 -> 440 ;
441 [label="nARC <= 1.125\nsquared_error = 0.001\nsamples = 10\nvalue = 0.791", fillcolor="#eca16b"] ;
440 -> 441 ;
442 [label="nSub <= 2.875\nsquared_error = 0.0\nsamples = 5\nvalue = 0.763", fillcolor="#eca572"] ;
441 -> 442 ;
443 [label="thARC <= 0.7\nsquared_error = 0.0\nsamples = 2\nvalue = 0.782", fillcolor="#eca26d"] ;
442 -> 443 ;
444 [label="squared_error = 0.0\nsamples = 1\nvalue = 0.782", fillcolor="#eca26d"] ;
443 -> 444 ;
445 [label="squared_error = 0.0\nsamples = 1\nvalue = 0.782", fillcolor="#eca26d"] ;
443 -> 445 ;
446 [label="thARC <= 0.7\nsquared_error = 0.0\nsamples = 3\nvalue = 0.75", fillcolor="#eda775"] ;
442 -> 446 ;
447 [label="squared_error = 0.0\nsamples = 1\nvalue = 0.75", fillcolor="#eda775"] ;
446 -> 447 ;
448 [label="thARC <= 0.9\nsquared_error = 0.0\nsamples = 2\nvalue = 0.75", fillcolor="#eda775"] ;
446 -> 448 ;
449 [label="squared_error = 0.0\nsamples = 1\nvalue = 0.75", fillcolor="#eda775"] ;
448 -> 449 ;
450 [label="squared_error = 0.0\nsamples = 1\nvalue = 0.75", fillcolor="#eda775"] ;
448 -> 450 ;
451 [label="thARC <= 0.9\nsquared_error = 0.0\nsamples = 5\nvalue = 0.818", fillcolor="#eb9d64"] ;
441 -> 451 ;
452 [label="nSub <= 2.875\nsquared_error = 0.0\nsamples = 3\nvalue = 0.809", fillcolor="#eb9e67"] ;
451 -> 452 ;
453 [label="thARC <= 0.7\nsquared_error = 0.0\nsamples = 2\nvalue = 0.816", fillcolor="#eb9d65"] ;
452 -> 453 ;
454 [label="squared_error = 0.0\nsamples = 1\nvalue = 0.807", fillcolor="#eb9e67"] ;
453 -> 454 ;
455 [label="squared_error = 0.0\nsamples = 1\nvalue = 0.825", fillcolor="#ea9c63"] ;
453 -> 455 ;
456 [label="squared_error = 0.0\nsamples = 1\nvalue = 0.795", fillcolor="#eba06a"] ;
452 -> 456 ;
457 [label="nSub <= 2.875\nsquared_error = 0.0\nsamples = 2\nvalue = 0.831", fillcolor="#ea9b61"] ;
451 -> 457 ;
458 [label="squared_error = 0.0\nsamples = 1\nvalue = 0.846", fillcolor="#ea985e"] ;
457 -> 458 ;
459 [label="squared_error = -0.0\nsamples = 1\nvalue = 0.817", fillcolor="#eb9d65"] ;
457 -> 459 ;
460 [label="nARC <= 1.125\nsquared_error = 0.001\nsamples = 11\nvalue = 0.731", fillcolor="#edaa79"] ;
440 -> 460 ;
461 [label="nSub <= 3.375\nsquared_error = 0.0\nsamples = 5\nvalue = 0.703", fillcolor="#eeae80"] ;
460 -> 461 ;
462 [label="thARC <= 0.7\nsquared_error = 0.0\nsamples = 2\nvalue = 0.72", fillcolor="#eeac7c"] ;
461 -> 462 ;
463 [label="squared_error = 0.0\nsamples = 1\nvalue = 0.72", fillcolor="#eeac7c"] ;
462 -> 463 ;
464 [label="squared_error = -0.0\nsamples = 1\nvalue = 0.72", fillcolor="#eeac7c"] ;
462 -> 464 ;
465 [label="thARC <= 0.9\nsquared_error = 0.0\nsamples = 3\nvalue = 0.692", fillcolor="#efb083"] ;
461 -> 465 ;
466 [label="thARC <= 0.7\nsquared_error = 0.0\nsamples = 2\nvalue = 0.691", fillcolor="#efb083"] ;
465 -> 466 ;
467 [label="squared_error = 0.0\nsamples = 1\nvalue = 0.691", fillcolor="#efb083"] ;
466 -> 467 ;
468 [label="squared_error = 0.0\nsamples = 1\nvalue = 0.691", fillcolor="#efb083"] ;
466 -> 468 ;
469 [label="squared_error = 0.0\nsamples = 1\nvalue = 0.692", fillcolor="#efb083"] ;
465 -> 469 ;
470 [label="thARC <= 0.9\nsquared_error = 0.0\nsamples = 6\nvalue = 0.754", fillcolor="#eda674"] ;
460 -> 470 ;
471 [label="nSub <= 3.375\nsquared_error = 0.0\nsamples = 4\nvalue = 0.743", fillcolor="#eda876"] ;
470 -> 471 ;
472 [label="thARC <= 0.7\nsquared_error = 0.0\nsamples = 2\nvalue = 0.757", fillcolor="#eda673"] ;
471 -> 472 ;
473 [label="squared_error = 0.0\nsamples = 1\nvalue = 0.747", fillcolor="#eda775"] ;
472 -> 473 ;
474 [label="squared_error = -0.0\nsamples = 1\nvalue = 0.766", fillcolor="#eca471"] ;
472 -> 474 ;
475 [label="thARC <= 0.7\nsquared_error = 0.0\nsamples = 2\nvalue = 0.729", fillcolor="#edaa7a"] ;
471 -> 475 ;
476 [label="squared_error = 0.0\nsamples = 1\nvalue = 0.719", fillcolor="#eeac7c"] ;
475 -> 476 ;
477 [label="squared_error = 0.0\nsamples = 1\nvalue = 0.739", fillcolor="#eda977"] ;
475 -> 477 ;
478 [label="nSub <= 3.375\nsquared_error = 0.0\nsamples = 2\nvalue = 0.776", fillcolor="#eca36f"] ;
470 -> 478 ;
479 [label="squared_error = 0.0\nsamples = 1\nvalue = 0.789", fillcolor="#eca16b"] ;
478 -> 479 ;
480 [label="squared_error = 0.0\nsamples = 1\nvalue = 0.762", fillcolor="#eca572"] ;
478 -> 480 ;
481 [label="thARC <= 0.7\nsquared_error = 0.002\nsamples = 45\nvalue = 0.862", fillcolor="#e9965a"] ;
439 -> 481 ;
482 [label="nSub <= 3.125\nsquared_error = 0.0\nsamples = 18\nvalue = 0.823", fillcolor="#eb9c63"] ;
481 -> 482 ;
483 [label="nARC <= 1.625\nsquared_error = 0.0\nsamples = 9\nvalue = 0.836", fillcolor="#ea9a60"] ;
482 -> 483 ;
484 [label="nSub <= 2.875\nsquared_error = 0.0\nsamples = 2\nvalue = 0.817", fillcolor="#eb9d65"] ;
483 -> 484 ;
485 [label="squared_error = 0.0\nsamples = 1\nvalue = 0.832", fillcolor="#ea9b61"] ;
484 -> 485 ;
486 [label="squared_error = -0.0\nsamples = 1\nvalue = 0.803", fillcolor="#eb9f68"] ;
484 -> 486 ;
487 [label="nARC <= 2.375\nsquared_error = 0.0\nsamples = 7\nvalue = 0.841", fillcolor="#ea995f"] ;
483 -> 487 ;
488 [label="nSub <= 2.875\nsquared_error = 0.0\nsamples = 6\nvalue = 0.844", fillcolor="#ea995e"] ;
487 -> 488 ;
489 [label="nARC <= 2.125\nsquared_error = 0.0\nsamples = 3\nvalue = 0.852", fillcolor="#ea975c"] ;
488 -> 489 ;
490 [label="nARC <= 1.875\nsquared_error = 0.0\nsamples = 2\nvalue = 0.853", fillcolor="#ea975c"] ;
489 -> 490 ;
491 [label="squared_error = 0.0\nsamples = 1\nvalue = 0.85", fillcolor="#ea985d"] ;
490 -> 491 ;
492 [label="squared_error = 0.0\nsamples = 1\nvalue = 0.857", fillcolor="#e9975b"] ;
490 -> 492 ;
493 [label="squared_error = 0.0\nsamples = 1\nvalue = 0.849", fillcolor="#ea985d"] ;
489 -> 493 ;
494 [label="nARC <= 1.875\nsquared_error = 0.0\nsamples = 3\nvalue = 0.836", fillcolor="#ea9a60"] ;
488 -> 494 ;
495 [label="squared_error = 0.0\nsamples = 1\nvalue = 0.826", fillcolor="#ea9b62"] ;
494 -> 495 ;
496 [label="nARC <= 2.125\nsquared_error = 0.0\nsamples = 2\nvalue = 0.841", fillcolor="#ea995f"] ;
494 -> 496 ;
497 [label="squared_error = 0.0\nsamples = 1\nvalue = 0.841", fillcolor="#ea995f"] ;
496 -> 497 ;
498 [label="squared_error = 0.0\nsamples = 1\nvalue = 0.841", fillcolor="#ea995f"] ;
496 -> 498 ;
499 [label="squared_error = -0.0\nsamples = 1\nvalue = 0.823", fillcolor="#eb9c63"] ;
487 -> 499 ;
500 [label="nARC <= 1.875\nsquared_error = 0.0\nsamples = 9\nvalue = 0.809", fillcolor="#eb9e66"] ;
482 -> 500 ;
501 [label="nARC <= 1.625\nsquared_error = 0.0\nsamples = 3\nvalue = 0.786", fillcolor="#eca16c"] ;
500 -> 501 ;
502 [label="squared_error = 0.0\nsamples = 1\nvalue = 0.776", fillcolor="#eca36e"] ;
501 -> 502 ;
503 [label="nSub <= 3.375\nsquared_error = 0.0\nsamples = 2\nvalue = 0.791", fillcolor="#eca16b"] ;
501 -> 503 ;
504 [label="squared_error = 0.0\nsamples = 1\nvalue = 0.803", fillcolor="#eb9f68"] ;
503 -> 504 ;
505 [label="squared_error = 0.0\nsamples = 1\nvalue = 0.78", fillcolor="#eca26e"] ;
503 -> 505 ;
506 [label="nSub <= 3.375\nsquared_error = 0.0\nsamples = 6\nvalue = 0.821", fillcolor="#eb9c64"] ;
500 -> 506 ;
507 [label="nARC <= 2.125\nsquared_error = 0.0\nsamples = 3\nvalue = 0.827", fillcolor="#ea9b62"] ;
506 -> 507 ;
508 [label="squared_error = 0.0\nsamples = 1\nvalue = 0.823", fillcolor="#eb9c63"] ;
507 -> 508 ;
509 [label="nARC <= 2.375\nsquared_error = 0.0\nsamples = 2\nvalue = 0.828", fillcolor="#ea9b62"] ;
507 -> 509 ;
510 [label="squared_error = 0.0\nsamples = 1\nvalue = 0.832", fillcolor="#ea9b61"] ;
509 -> 510 ;
511 [label="squared_error = 0.0\nsamples = 1\nvalue = 0.825", fillcolor="#ea9c63"] ;
509 -> 511 ;
512 [label="nARC <= 2.125\nsquared_error = 0.0\nsamples = 3\nvalue = 0.815", fillcolor="#eb9d65"] ;
506 -> 512 ;
513 [label="squared_error = 0.0\nsamples = 1\nvalue = 0.805", fillcolor="#eb9f68"] ;
512 -> 513 ;
514 [label="nARC <= 2.375\nsquared_error = 0.0\nsamples = 2\nvalue = 0.821", fillcolor="#eb9c64"] ;
512 -> 514 ;
515 [label="squared_error = 0.0\nsamples = 1\nvalue = 0.82", fillcolor="#eb9c64"] ;
514 -> 515 ;
516 [label="squared_error = 0.0\nsamples = 1\nvalue = 0.822", fillcolor="#eb9c64"] ;
514 -> 516 ;
517 [label="nARC <= 1.625\nsquared_error = 0.001\nsamples = 27\nvalue = 0.889", fillcolor="#e89253"] ;
481 -> 517 ;
518 [label="nSub <= 3.375\nsquared_error = 0.0\nsamples = 5\nvalue = 0.857", fillcolor="#e9975b"] ;
517 -> 518 ;
519 [label="thARC <= 0.9\nsquared_error = 0.0\nsamples = 4\nvalue = 0.862", fillcolor="#e9965a"] ;
518 -> 519 ;
520 [label="nSub <= 2.875\nsquared_error = 0.0\nsamples = 2\nvalue = 0.853", fillcolor="#ea975c"] ;
519 -> 520 ;
521 [label="squared_error = 0.0\nsamples = 1\nvalue = 0.866", fillcolor="#e99559"] ;
520 -> 521 ;
522 [label="squared_error = 0.0\nsamples = 1\nvalue = 0.841", fillcolor="#ea995f"] ;
520 -> 522 ;
523 [label="nSub <= 3.125\nsquared_error = 0.0\nsamples = 2\nvalue = 0.871", fillcolor="#e99558"] ;
519 -> 523 ;
524 [label="squared_error = 0.0\nsamples = 1\nvalue = 0.882", fillcolor="#e99355"] ;
523 -> 524 ;
525 [label="squared_error = -0.0\nsamples = 1\nvalue = 0.86", fillcolor="#e9965a"] ;
523 -> 525 ;
526 [label="squared_error = -0.0\nsamples = 1\nvalue = 0.838", fillcolor="#ea9a60"] ;
518 -> 526 ;
527 [label="thARC <= 0.9\nsquared_error = 0.001\nsamples = 22\nvalue = 0.896", fillcolor="#e89152"] ;
517 -> 527 ;
528 [label="nARC <= 2.375\nsquared_error = 0.0\nsamples = 10\nvalue = 0.877", fillcolor="#e99456"] ;
527 -> 528 ;
529 [label="nARC <= 1.875\nsquared_error = 0.0\nsamples = 7\nvalue = 0.883", fillcolor="#e99355"] ;
528 -> 529 ;
530 [label="squared_error = 0.0\nsamples = 1\nvalue = 0.859", fillcolor="#e9965b"] ;
529 -> 530 ;
531 [label="nARC <= 2.125\nsquared_error = 0.0\nsamples = 6\nvalue = 0.886", fillcolor="#e99254"] ;
529 -> 531 ;
532 [label="nSub <= 3.375\nsquared_error = 0.0\nsamples = 2\nvalue = 0.882", fillcolor="#e99355"] ;
531 -> 532 ;
533 [label="squared_error = 0.0\nsamples = 1\nvalue = 0.887", fillcolor="#e99254"] ;
532 -> 533 ;
534 [label="squared_error = 0.0\nsamples = 1\nvalue = 0.877", fillcolor="#e99456"] ;
532 -> 534 ;
535 [label="nSub <= 2.875\nsquared_error = 0.0\nsamples = 4\nvalue = 0.888", fillcolor="#e89254"] ;
531 -> 535 ;
536 [label="squared_error = 0.0\nsamples = 1\nvalue = 0.881", fillcolor="#e99355"] ;
535 -> 536 ;
537 [label="nSub <= 3.125\nsquared_error = 0.0\nsamples = 3\nvalue = 0.891", fillcolor="#e89253"] ;
535 -> 537 ;
538 [label="squared_error = 0.0\nsamples = 1\nvalue = 0.889", fillcolor="#e89254"] ;
537 -> 538 ;
539 [label="squared_error = 0.0\nsamples = 2\nvalue = 0.892", fillcolor="#e89153"] ;
537 -> 539 ;
540 [label="nSub <= 3.0\nsquared_error = 0.0\nsamples = 3\nvalue = 0.864", fillcolor="#e9965a"] ;
528 -> 540 ;
541 [label="squared_error = 0.0\nsamples = 1\nvalue = 0.839", fillcolor="#ea995f"] ;
540 -> 541 ;
542 [label="nSub <= 3.375\nsquared_error = 0.0\nsamples = 2\nvalue = 0.876", fillcolor="#e99457"] ;
540 -> 542 ;
543 [label="squared_error = 0.0\nsamples = 1\nvalue = 0.871", fillcolor="#e99558"] ;
542 -> 543 ;
544 [label="squared_error = 0.0\nsamples = 1\nvalue = 0.881", fillcolor="#e99355"] ;
542 -> 544 ;
545 [label="nARC <= 2.375\nsquared_error = 0.001\nsamples = 12\nvalue = 0.912", fillcolor="#e88e4e"] ;
527 -> 545 ;
546 [label="nARC <= 2.125\nsquared_error = 0.0\nsamples = 8\nvalue = 0.931", fillcolor="#e78c4a"] ;
545 -> 546 ;
547 [label="nARC <= 1.875\nsquared_error = 0.0\nsamples = 5\nvalue = 0.938", fillcolor="#e78a48"] ;
546 -> 547 ;
548 [label="nSub <= 2.875\nsquared_error = 0.0\nsamples = 2\nvalue = 0.933", fillcolor="#e78b49"] ;
547 -> 548 ;
549 [label="squared_error = 0.0\nsamples = 1\nvalue = 0.937", fillcolor="#e78b48"] ;
548 -> 549 ;
550 [label="squared_error = -0.0\nsamples = 1\nvalue = 0.928", fillcolor="#e78c4a"] ;
548 -> 550 ;
551 [label="nSub <= 3.375\nsquared_error = 0.0\nsamples = 3\nvalue = 0.941", fillcolor="#e78a47"] ;
547 -> 551 ;
552 [label="nSub <= 3.125\nsquared_error = 0.0\nsamples = 2\nvalue = 0.941", fillcolor="#e78a47"] ;
551 -> 552 ;
553 [label="squared_error = 0.0\nsamples = 1\nvalue = 0.941", fillcolor="#e78a47"] ;
552 -> 553 ;
554 [label="squared_error = 0.0\nsamples = 1\nvalue = 0.942", fillcolor="#e78a47"] ;
552 -> 554 ;
555 [label="squared_error = 0.0\nsamples = 1\nvalue = 0.941", fillcolor="#e78a47"] ;
551 -> 555 ;
556 [label="nSub <= 3.25\nsquared_error = 0.0\nsamples = 3\nvalue = 0.919", fillcolor="#e88d4c"] ;
546 -> 556 ;
557 [label="nSub <= 2.875\nsquared_error = 0.0\nsamples = 2\nvalue = 0.909", fillcolor="#e88f4f"] ;
556 -> 557 ;
558 [label="squared_error = 0.0\nsamples = 1\nvalue = 0.901", fillcolor="#e89051"] ;
557 -> 558 ;
559 [label="squared_error = 0.0\nsamples = 1\nvalue = 0.918", fillcolor="#e88e4d"] ;
557 -> 559 ;
560 [label="squared_error = 0.0\nsamples = 1\nvalue = 0.939", fillcolor="#e78a48"] ;
556 -> 560 ;
561 [label="nSub <= 3.125\nsquared_error = 0.0\nsamples = 4\nvalue = 0.876", fillcolor="#e99457"] ;
545 -> 561 ;
562 [label="nSub <= 2.875\nsquared_error = 0.0\nsamples = 2\nvalue = 0.856", fillcolor="#ea975b"] ;
561 -> 562 ;
563 [label="squared_error = 0.0\nsamples = 1\nvalue = 0.845", fillcolor="#ea995e"] ;
562 -> 563 ;
564 [label="squared_error = -0.0\nsamples = 1\nvalue = 0.868", fillcolor="#e99558"] ;
562 -> 564 ;
565 [label="nSub <= 3.375\nsquared_error = 0.0\nsamples = 2\nvalue = 0.895", fillcolor="#e89152"] ;
561 -> 565 ;
566 [label="squared_error = 0.0\nsamples = 1\nvalue = 0.888", fillcolor="#e99254"] ;
565 -> 566 ;
567 [label="squared_error = 0.0\nsamples = 1\nvalue = 0.903", fillcolor="#e89050"] ;
565 -> 567 ;
568 [label="thARC <= 0.3\nsquared_error = 0.018\nsamples = 141\nvalue = 0.718", fillcolor="#eeac7c"] ;
2 -> 568 ;
569 [label="nSub <= 2.375\nsquared_error = 0.007\nsamples = 48\nvalue = 0.824", fillcolor="#eb9c63"] ;
568 -> 569 ;
570 [label="thARC <= 0.1\nsquared_error = 0.004\nsamples = 28\nvalue = 0.879", fillcolor="#e99356"] ;
569 -> 570 ;
571 [label="nSub <= 1.875\nsquared_error = 0.003\nsamples = 13\nvalue = 0.932", fillcolor="#e78b49"] ;
570 -> 571 ;
572 [label="nSub <= 1.625\nsquared_error = 0.001\nsamples = 9\nvalue = 0.962", fillcolor="#e68742"] ;
571 -> 572 ;
573 [label="nSub <= 1.375\nsquared_error = 0.0\nsamples = 6\nvalue = 0.981", fillcolor="#e6843e"] ;
572 -> 573 ;
574 [label="nSub <= 1.125\nsquared_error = 0.0\nsamples = 4\nvalue = 0.991", fillcolor="#e5823b"] ;
573 -> 574 ;
575 [label="squared_error = 0.0\nsamples = 1\nvalue = 1.0", fillcolor="#e58139"] ;
574 -> 575 ;
576 [label="squared_error = 0.0\nsamples = 3\nvalue = 0.988", fillcolor="#e5833c"] ;
574 -> 576 ;
577 [label="squared_error = 0.0\nsamples = 2\nvalue = 0.96", fillcolor="#e68742"] ;
573 -> 577 ;
578 [label="squared_error = -0.0\nsamples = 3\nvalue = 0.926", fillcolor="#e78c4b"] ;
572 -> 578 ;
579 [label="nSub <= 2.125\nsquared_error = 0.0\nsamples = 4\nvalue = 0.863", fillcolor="#e9965a"] ;
571 -> 579 ;
580 [label="squared_error = 0.0\nsamples = 1\nvalue = 0.89", fillcolor="#e89253"] ;
579 -> 580 ;
581 [label="squared_error = 0.0\nsamples = 3\nvalue = 0.854", fillcolor="#ea975c"] ;
579 -> 581 ;
582 [label="nARC <= 3.125\nsquared_error = 0.001\nsamples = 15\nvalue = 0.833", fillcolor="#ea9a61"] ;
570 -> 582 ;
583 [label="nARC <= 2.875\nsquared_error = 0.0\nsamples = 10\nvalue = 0.851", fillcolor="#ea985d"] ;
582 -> 583 ;
584 [label="nSub <= 1.875\nsquared_error = 0.0\nsamples = 5\nvalue = 0.863", fillcolor="#e9965a"] ;
583 -> 584 ;
585 [label="nSub <= 1.25\nsquared_error = 0.0\nsamples = 3\nvalue = 0.876", fillcolor="#e99457"] ;
584 -> 585 ;
586 [label="squared_error = 0.0\nsamples = 1\nvalue = 0.863", fillcolor="#e9965a"] ;
585 -> 586 ;
587 [label="nSub <= 1.625\nsquared_error = 0.0\nsamples = 2\nvalue = 0.883", fillcolor="#e99355"] ;
585 -> 587 ;
588 [label="squared_error = 0.0\nsamples = 1\nvalue = 0.888", fillcolor="#e99254"] ;
587 -> 588 ;
589 [label="squared_error = 0.0\nsamples = 1\nvalue = 0.877", fillcolor="#e99456"] ;
587 -> 589 ;
590 [label="nSub <= 2.125\nsquared_error = 0.0\nsamples = 2\nvalue = 0.844", fillcolor="#ea995e"] ;
584 -> 590 ;
591 [label="squared_error = 0.0\nsamples = 1\nvalue = 0.856", fillcolor="#ea975b"] ;
590 -> 591 ;
592 [label="squared_error = -0.0\nsamples = 1\nvalue = 0.833", fillcolor="#ea9a61"] ;
590 -> 592 ;
593 [label="nSub <= 1.125\nsquared_error = 0.0\nsamples = 5\nvalue = 0.839", fillcolor="#ea995f"] ;
583 -> 593 ;
594 [label="squared_error = 0.0\nsamples = 1\nvalue = 0.811", fillcolor="#eb9e66"] ;
593 -> 594 ;
595 [label="nSub <= 1.875\nsquared_error = 0.0\nsamples = 4\nvalue = 0.845", fillcolor="#ea985e"] ;
593 -> 595 ;
596 [label="nSub <= 1.375\nsquared_error = 0.0\nsamples = 3\nvalue = 0.849", fillcolor="#ea985d"] ;
595 -> 596 ;
597 [label="squared_error = 0.0\nsamples = 1\nvalue = 0.844", fillcolor="#ea995e"] ;
596 -> 597 ;
598 [label="nSub <= 1.625\nsquared_error = 0.0\nsamples = 2\nvalue = 0.852", fillcolor="#ea975c"] ;
596 -> 598 ;
599 [label="squared_error = 0.0\nsamples = 1\nvalue = 0.854", fillcolor="#ea975c"] ;
598 -> 599 ;
600 [label="squared_error = -0.0\nsamples = 1\nvalue = 0.85", fillcolor="#ea985d"] ;
598 -> 600 ;
601 [label="squared_error = 0.0\nsamples = 1\nvalue = 0.834", fillcolor="#ea9a61"] ;
595 -> 601 ;
602 [label="nSub <= 1.25\nsquared_error = 0.001\nsamples = 5\nvalue = 0.797", fillcolor="#eba069"] ;
582 -> 602 ;
603 [label="squared_error = 0.0\nsamples = 1\nvalue = 0.753", fillcolor="#eda674"] ;
602 -> 603 ;
604 [label="nSub <= 2.125\nsquared_error = 0.0\nsamples = 4\nvalue = 0.808", fillcolor="#eb9e67"] ;
602 -> 604 ;
605 [label="nSub <= 1.875\nsquared_error = 0.0\nsamples = 3\nvalue = 0.812", fillcolor="#eb9e66"] ;
604 -> 605 ;
606 [label="nSub <= 1.625\nsquared_error = 0.0\nsamples = 2\nvalue = 0.815", fillcolor="#eb9d65"] ;
605 -> 606 ;
607 [label="squared_error = 0.0\nsamples = 1\nvalue = 0.812", fillcolor="#eb9d66"] ;
606 -> 607 ;
608 [label="squared_error = 0.0\nsamples = 1\nvalue = 0.817", fillcolor="#eb9d65"] ;
606 -> 608 ;
609 [label="squared_error = -0.0\nsamples = 1\nvalue = 0.807", fillcolor="#eb9e67"] ;
605 -> 609 ;
610 [label="squared_error = 0.0\nsamples = 1\nvalue = 0.794", fillcolor="#eba06a"] ;
604 -> 610 ;
611 [label="nSub <= 2.875\nsquared_error = 0.001\nsamples = 20\nvalue = 0.747", fillcolor="#eda775"] ;
569 -> 611 ;
612 [label="thARC <= 0.1\nsquared_error = 0.0\nsamples = 6\nvalue = 0.795", fillcolor="#eba06a"] ;
611 -> 612 ;
613 [label="nSub <= 2.625\nsquared_error = 0.0\nsamples = 3\nvalue = 0.805", fillcolor="#eb9f68"] ;
612 -> 613 ;
614 [label="squared_error = 0.0\nsamples = 2\nvalue = 0.816", fillcolor="#eb9d65"] ;
613 -> 614 ;
615 [label="squared_error = -0.0\nsamples = 1\nvalue = 0.782", fillcolor="#eca26d"] ;
613 -> 615 ;
616 [label="nARC <= 3.125\nsquared_error = 0.0\nsamples = 3\nvalue = 0.785", fillcolor="#eca26c"] ;
612 -> 616 ;
617 [label="nSub <= 2.625\nsquared_error = 0.0\nsamples = 2\nvalue = 0.789", fillcolor="#eca16b"] ;
616 -> 617 ;
618 [label="squared_error = 0.0\nsamples = 1\nvalue = 0.795", fillcolor="#eba06a"] ;
617 -> 618 ;
619 [label="squared_error = -0.0\nsamples = 1\nvalue = 0.782", fillcolor="#eca26d"] ;
617 -> 619 ;
620 [label="squared_error = 0.0\nsamples = 1\nvalue = 0.778", fillcolor="#eca36e"] ;
616 -> 620 ;
621 [label="nSub <= 3.125\nsquared_error = 0.0\nsamples = 14\nvalue = 0.727", fillcolor="#eeab7a"] ;
611 -> 621 ;
622 [label="nARC <= 3.125\nsquared_error = 0.0\nsamples = 5\nvalue = 0.749", fillcolor="#eda775"] ;
621 -> 622 ;
623 [label="thARC <= 0.1\nsquared_error = 0.0\nsamples = 3\nvalue = 0.752", fillcolor="#eda774"] ;
622 -> 623 ;
624 [label="squared_error = 0.0\nsamples = 1\nvalue = 0.75", fillcolor="#eda775"] ;
623 -> 624 ;
625 [label="nARC <= 2.875\nsquared_error = 0.0\nsamples = 2\nvalue = 0.753", fillcolor="#eda674"] ;
623 -> 625 ;
626 [label="squared_error = 0.0\nsamples = 1\nvalue = 0.757", fillcolor="#eda673"] ;
625 -> 626 ;
627 [label="squared_error = 0.0\nsamples = 1\nvalue = 0.75", fillcolor="#eda775"] ;
625 -> 627 ;
628 [label="thARC <= 0.1\nsquared_error = 0.0\nsamples = 2\nvalue = 0.745", fillcolor="#eda876"] ;
622 -> 628 ;
629 [label="squared_error = 0.0\nsamples = 1\nvalue = 0.75", fillcolor="#eda775"] ;
628 -> 629 ;
630 [label="squared_error = -0.0\nsamples = 1\nvalue = 0.74", fillcolor="#eda877"] ;
628 -> 630 ;
631 [label="nSub <= 3.375\nsquared_error = 0.0\nsamples = 9\nvalue = 0.714", fillcolor="#eeac7d"] ;
621 -> 631 ;
632 [label="thARC <= 0.1\nsquared_error = 0.0\nsamples = 6\nvalue = 0.723", fillcolor="#eeab7b"] ;
631 -> 632 ;
633 [label="squared_error = 0.0\nsamples = 3\nvalue = 0.72", fillcolor="#eeac7c"] ;
632 -> 633 ;
634 [label="nARC <= 3.125\nsquared_error = 0.0\nsamples = 3\nvalue = 0.726", fillcolor="#eeab7a"] ;
632 -> 634 ;
635 [label="nARC <= 2.875\nsquared_error = 0.0\nsamples = 2\nvalue = 0.73", fillcolor="#edaa7a"] ;
634 -> 635 ;
636 [label="squared_error = 0.0\nsamples = 1\nvalue = 0.732", fillcolor="#edaa79"] ;
635 -> 636 ;
637 [label="squared_error = -0.0\nsamples = 1\nvalue = 0.727", fillcolor="#eeaa7a"] ;
635 -> 637 ;
638 [label="squared_error = 0.0\nsamples = 1\nvalue = 0.72", fillcolor="#eeac7c"] ;
634 -> 638 ;
639 [label="thARC <= 0.1\nsquared_error = 0.0\nsamples = 3\nvalue = 0.696", fillcolor="#efaf82"] ;
631 -> 639 ;
640 [label="squared_error = 0.0\nsamples = 2\nvalue = 0.691", fillcolor="#efb083"] ;
639 -> 640 ;
641 [label="squared_error = -0.0\nsamples = 1\nvalue = 0.705", fillcolor="#eeae7f"] ;
639 -> 641 ;
642 [label="nSub <= 1.875\nsquared_error = 0.015\nsamples = 93\nvalue = 0.663", fillcolor="#f0b489"] ;
568 -> 642 ;
643 [label="thARC <= 0.5\nsquared_error = 0.013\nsamples = 32\nvalue = 0.54", fillcolor="#f3c7a7"] ;
642 -> 643 ;
644 [label="nARC <= 2.875\nsquared_error = 0.007\nsamples = 10\nvalue = 0.639", fillcolor="#f0b88f"] ;
643 -> 644 ;
645 [label="nSub <= 1.125\nsquared_error = 0.002\nsamples = 4\nvalue = 0.717", fillcolor="#eeac7c"] ;
644 -> 645 ;
646 [label="squared_error = 0.0\nsamples = 1\nvalue = 0.646", fillcolor="#f0b78d"] ;
645 -> 646 ;
647 [label="nSub <= 1.375\nsquared_error = 0.001\nsamples = 3\nvalue = 0.741", fillcolor="#eda877"] ;
645 -> 647 ;
648 [label="squared_error = 0.0\nsamples = 1\nvalue = 0.708", fillcolor="#eead7f"] ;
647 -> 648 ;
649 [label="nSub <= 1.625\nsquared_error = 0.0\nsamples = 2\nvalue = 0.758", fillcolor="#eda673"] ;
647 -> 649 ;
650 [label="squared_error = 0.0\nsamples = 1\nvalue = 0.746", fillcolor="#eda876"] ;
649 -> 650 ;
651 [label="squared_error = 0.0\nsamples = 1\nvalue = 0.77", fillcolor="#eca470"] ;
649 -> 651 ;
652 [label="nSub <= 1.375\nsquared_error = 0.004\nsamples = 6\nvalue = 0.587", fillcolor="#f2c09c"] ;
644 -> 652 ;
653 [label="nARC <= 3.125\nsquared_error = 0.003\nsamples = 4\nvalue = 0.554", fillcolor="#f3c5a4"] ;
652 -> 653 ;
654 [label="nSub <= 1.125\nsquared_error = 0.001\nsamples = 2\nvalue = 0.594", fillcolor="#f2bf9a"] ;
653 -> 654 ;
655 [label="squared_error = 0.0\nsamples = 1\nvalue = 0.561", fillcolor="#f3c4a2"] ;
654 -> 655 ;
656 [label="squared_error = -0.0\nsamples = 1\nvalue = 0.627", fillcolor="#f1ba92"] ;
654 -> 656 ;
657 [label="nSub <= 1.125\nsquared_error = 0.001\nsamples = 2\nvalue = 0.513", fillcolor="#f4cbad"] ;
653 -> 657 ;
658 [label="squared_error = 0.0\nsamples = 1\nvalue = 0.481", fillcolor="#f5d0b5"] ;
657 -> 658 ;
659 [label="squared_error = 0.0\nsamples = 1\nvalue = 0.546", fillcolor="#f3c6a5"] ;
657 -> 659 ;
660 [label="nARC <= 3.125\nsquared_error = 0.0\nsamples = 2\nvalue = 0.654", fillcolor="#f0b68c"] ;
652 -> 660 ;
661 [label="squared_error = 0.0\nsamples = 1\nvalue = 0.672", fillcolor="#efb387"] ;
660 -> 661 ;
662 [label="squared_error = 0.0\nsamples = 1\nvalue = 0.636", fillcolor="#f0b890"] ;
660 -> 662 ;
663 [label="nSub <= 1.375\nsquared_error = 0.009\nsamples = 22\nvalue = 0.494", fillcolor="#f5ceb2"] ;
643 -> 663 ;
664 [label="nARC <= 2.875\nsquared_error = 0.003\nsamples = 11\nvalue = 0.422", fillcolor="#f7d9c3"] ;
663 -> 664 ;
665 [label="nSub <= 1.125\nsquared_error = 0.001\nsamples = 4\nvalue = 0.47", fillcolor="#f6d1b7"] ;
664 -> 665 ;
666 [label="thARC <= 0.7\nsquared_error = 0.001\nsamples = 3\nvalue = 0.457", fillcolor="#f6d3ba"] ;
665 -> 666 ;
667 [label="squared_error = 0.0\nsamples = 1\nvalue = 0.502", fillcolor="#f5cdb0"] ;
666 -> 667 ;
668 [label="thARC <= 0.9\nsquared_error = 0.0\nsamples = 2\nvalue = 0.435", fillcolor="#f7d7c0"] ;
666 -> 668 ;
669 [label="squared_error = 0.0\nsamples = 1\nvalue = 0.436", fillcolor="#f7d7c0"] ;
668 -> 669 ;
670 [label="squared_error = 0.0\nsamples = 1\nvalue = 0.435", fillcolor="#f7d7c0"] ;
668 -> 670 ;
671 [label="squared_error = 0.0\nsamples = 1\nvalue = 0.509", fillcolor="#f4ccae"] ;
665 -> 671 ;
672 [label="nSub <= 1.125\nsquared_error = 0.002\nsamples = 7\nvalue = 0.394", fillcolor="#f8ddca"] ;
664 -> 672 ;
673 [label="nARC <= 3.125\nsquared_error = 0.001\nsamples = 4\nvalue = 0.371", fillcolor="#f9e0cf"] ;
672 -> 673 ;
674 [label="thARC <= 0.7\nsquared_error = 0.001\nsamples = 2\nvalue = 0.399", fillcolor="#f8dcc8"] ;
673 -> 674 ;
675 [label="squared_error = 0.0\nsamples = 1\nvalue = 0.422", fillcolor="#f7d9c3"] ;
674 -> 675 ;
676 [label="squared_error = -0.0\nsamples = 1\nvalue = 0.375", fillcolor="#f9e0ce"] ;
674 -> 676 ;
677 [label="thARC <= 0.7\nsquared_error = 0.0\nsamples = 2\nvalue = 0.344", fillcolor="#fae5d6"] ;
673 -> 677 ;
678 [label="squared_error = 0.0\nsamples = 1\nvalue = 0.357", fillcolor="#f9e3d2"] ;
677 -> 678 ;
679 [label="squared_error = 0.0\nsamples = 1\nvalue = 0.331", fillcolor="#fae7d9"] ;
677 -> 679 ;
680 [label="thARC <= 0.9\nsquared_error = 0.001\nsamples = 3\nvalue = 0.424", fillcolor="#f7d8c2"] ;
672 -> 680 ;
681 [label="thARC <= 0.7\nsquared_error = 0.0\nsamples = 2\nvalue = 0.408", fillcolor="#f8dbc6"] ;
680 -> 681 ;
682 [label="squared_error = 0.0\nsamples = 1\nvalue = 0.422", fillcolor="#f7d9c3"] ;
681 -> 682 ;
683 [label="squared_error = 0.0\nsamples = 1\nvalue = 0.394", fillcolor="#f8ddca"] ;
681 -> 683 ;
684 [label="squared_error = -0.0\nsamples = 1\nvalue = 0.456", fillcolor="#f6d4bb"] ;
680 -> 684 ;
685 [label="nARC <= 3.125\nsquared_error = 0.004\nsamples = 11\nvalue = 0.567", fillcolor="#f3c3a0"] ;
663 -> 685 ;
686 [label="thARC <= 0.7\nsquared_error = 0.001\nsamples = 7\nvalue = 0.61", fillcolor="#f1bc96"] ;
685 -> 686 ;
687 [label="nARC <= 2.875\nsquared_error = 0.001\nsamples = 3\nvalue = 0.637", fillcolor="#f0b890"] ;
686 -> 687 ;
688 [label="nSub <= 1.625\nsquared_error = 0.001\nsamples = 2\nvalue = 0.655", fillcolor="#f0b58b"] ;
687 -> 688 ;
689 [label="squared_error = 0.0\nsamples = 1\nvalue = 0.632", fillcolor="#f1b991"] ;
688 -> 689 ;
690 [label="squared_error = -0.0\nsamples = 1\nvalue = 0.679", fillcolor="#efb286"] ;
688 -> 690 ;
691 [label="squared_error = 0.0\nsamples = 1\nvalue = 0.601", fillcolor="#f2be98"] ;
687 -> 691 ;
692 [label="nSub <= 1.625\nsquared_error = 0.001\nsamples = 4\nvalue = 0.59", fillcolor="#f2bf9b"] ;
686 -> 692 ;
693 [label="thARC <= 0.9\nsquared_error = 0.0\nsamples = 2\nvalue = 0.574", fillcolor="#f2c29f"] ;
692 -> 693 ;
694 [label="squared_error = 0.0\nsamples = 1\nvalue = 0.574", fillcolor="#f2c29f"] ;
693 -> 694 ;
695 [label="squared_error = 0.0\nsamples = 1\nvalue = 0.573", fillcolor="#f2c29f"] ;
693 -> 695 ;
696 [label="nARC <= 2.875\nsquared_error = 0.001\nsamples = 2\nvalue = 0.606", fillcolor="#f1bd97"] ;
692 -> 696 ;
697 [label="squared_error = 0.0\nsamples = 1\nvalue = 0.63", fillcolor="#f1b991"] ;
696 -> 697 ;
698 [label="squared_error = -0.0\nsamples = 1\nvalue = 0.582", fillcolor="#f2c09d"] ;
696 -> 698 ;
699 [label="nSub <= 1.625\nsquared_error = 0.001\nsamples = 4\nvalue = 0.491", fillcolor="#f5ceb3"] ;
685 -> 699 ;
700 [label="thARC <= 0.7\nsquared_error = 0.0\nsamples = 2\nvalue = 0.465", fillcolor="#f6d2b9"] ;
699 -> 700 ;
701 [label="squared_error = 0.0\nsamples = 1\nvalue = 0.479", fillcolor="#f5d0b5"] ;
700 -> 701 ;
702 [label="squared_error = -0.0\nsamples = 1\nvalue = 0.452", fillcolor="#f6d4bc"] ;
700 -> 702 ;
703 [label="thARC <= 0.7\nsquared_error = 0.0\nsamples = 2\nvalue = 0.516", fillcolor="#f4caac"] ;
699 -> 703 ;
704 [label="squared_error = 0.0\nsamples = 1\nvalue = 0.529", fillcolor="#f4c9a9"] ;
703 -> 704 ;
705 [label="squared_error = -0.0\nsamples = 1\nvalue = 0.503", fillcolor="#f5ccb0"] ;
703 -> 705 ;
706 [label="nSub <= 2.625\nsquared_error = 0.004\nsamples = 61\nvalue = 0.728", fillcolor="#eeaa7a"] ;
642 -> 706 ;
707 [label="nARC <= 2.875\nsquared_error = 0.004\nsamples = 23\nvalue = 0.681", fillcolor="#efb185"] ;
706 -> 707 ;
708 [label="thARC <= 0.5\nsquared_error = 0.002\nsamples = 8\nvalue = 0.742", fillcolor="#eda876"] ;
707 -> 708 ;
709 [label="nSub <= 2.125\nsquared_error = 0.0\nsamples = 3\nvalue = 0.786", fillcolor="#eca16c"] ;
708 -> 709 ;
710 [label="squared_error = 0.0\nsamples = 1\nvalue = 0.783", fillcolor="#eca26d"] ;
709 -> 710 ;
711 [label="nSub <= 2.375\nsquared_error = 0.0\nsamples = 2\nvalue = 0.788", fillcolor="#eca16c"] ;
709 -> 711 ;
712 [label="squared_error = 0.0\nsamples = 1\nvalue = 0.788", fillcolor="#eca16c"] ;
711 -> 712 ;
713 [label="squared_error = 0.0\nsamples = 1\nvalue = 0.787", fillcolor="#eca16c"] ;
711 -> 713 ;
714 [label="nSub <= 2.375\nsquared_error = 0.001\nsamples = 5\nvalue = 0.716", fillcolor="#eeac7d"] ;
708 -> 714 ;
715 [label="nSub <= 2.125\nsquared_error = 0.0\nsamples = 4\nvalue = 0.707", fillcolor="#eeae7f"] ;
714 -> 715 ;
716 [label="thARC <= 0.7\nsquared_error = 0.0\nsamples = 2\nvalue = 0.696", fillcolor="#efaf81"] ;
715 -> 716 ;
717 [label="squared_error = 0.0\nsamples = 1\nvalue = 0.715", fillcolor="#eeac7d"] ;
716 -> 717 ;
718 [label="squared_error = 0.0\nsamples = 1\nvalue = 0.677", fillcolor="#efb286"] ;
716 -> 718 ;
719 [label="thARC <= 0.9\nsquared_error = 0.0\nsamples = 2\nvalue = 0.717", fillcolor="#eeac7c"] ;
715 -> 719 ;
720 [label="squared_error = 0.0\nsamples = 1\nvalue = 0.718", fillcolor="#eeac7c"] ;
719 -> 720 ;
721 [label="squared_error = 0.0\nsamples = 1\nvalue = 0.717", fillcolor="#eeac7d"] ;
719 -> 721 ;
722 [label="squared_error = 0.0\nsamples = 1\nvalue = 0.753", fillcolor="#eda774"] ;
714 -> 722 ;
723 [label="nARC <= 3.125\nsquared_error = 0.003\nsamples = 15\nvalue = 0.648", fillcolor="#f0b68d"] ;
707 -> 723 ;
724 [label="thARC <= 0.5\nsquared_error = 0.002\nsamples = 9\nvalue = 0.676", fillcolor="#efb286"] ;
723 -> 724 ;
725 [label="nSub <= 2.125\nsquared_error = 0.0\nsamples = 2\nvalue = 0.734", fillcolor="#eda978"] ;
724 -> 725 ;
726 [label="squared_error = 0.0\nsamples = 1\nvalue = 0.727", fillcolor="#eeaa7a"] ;
725 -> 726 ;
727 [label="squared_error = 0.0\nsamples = 1\nvalue = 0.741", fillcolor="#eda877"] ;
725 -> 727 ;
728 [label="nSub <= 2.375\nsquared_error = 0.001\nsamples = 7\nvalue = 0.66", fillcolor="#f0b58a"] ;
724 -> 728 ;
729 [label="nSub <= 2.125\nsquared_error = 0.0\nsamples = 4\nvalue = 0.632", fillcolor="#f1b991"] ;
728 -> 729 ;
730 [label="thARC <= 0.7\nsquared_error = 0.0\nsamples = 3\nvalue = 0.626", fillcolor="#f1ba92"] ;
729 -> 730 ;
731 [label="squared_error = 0.0\nsamples = 1\nvalue = 0.642", fillcolor="#f0b78e"] ;
730 -> 731 ;
732 [label="thARC <= 0.9\nsquared_error = 0.0\nsamples = 2\nvalue = 0.617", fillcolor="#f1bb94"] ;
730 -> 732 ;
733 [label="squared_error = 0.0\nsamples = 1\nvalue = 0.608", fillcolor="#f1bd97"] ;
732 -> 733 ;
734 [label="squared_error = -0.0\nsamples = 1\nvalue = 0.627", fillcolor="#f1ba92"] ;
732 -> 734 ;
735 [label="squared_error = 0.0\nsamples = 1\nvalue = 0.65", fillcolor="#f0b68c"] ;
729 -> 735 ;
736 [label="thARC <= 0.7\nsquared_error = 0.0\nsamples = 3\nvalue = 0.697", fillcolor="#eeaf81"] ;
728 -> 736 ;
737 [label="squared_error = 0.0\nsamples = 1\nvalue = 0.706", fillcolor="#eeae7f"] ;
736 -> 737 ;
738 [label="thARC <= 0.9\nsquared_error = 0.0\nsamples = 2\nvalue = 0.693", fillcolor="#efb082"] ;
736 -> 738 ;
739 [label="squared_error = 0.0\nsamples = 1\nvalue = 0.687", fillcolor="#efb084"] ;
738 -> 739 ;
740 [label="squared_error = -0.0\nsamples = 1\nvalue = 0.698", fillcolor="#eeaf81"] ;
738 -> 740 ;
741 [label="thARC <= 0.5\nsquared_error = 0.002\nsamples = 6\nvalue = 0.606", fillcolor="#f1bd97"] ;
723 -> 741 ;
742 [label="squared_error = 0.0\nsamples = 1\nvalue = 0.666", fillcolor="#efb489"] ;
741 -> 742 ;
743 [label="nSub <= 2.125\nsquared_error = 0.001\nsamples = 5\nvalue = 0.595", fillcolor="#f2bf9a"] ;
741 -> 743 ;
744 [label="thARC <= 0.7\nsquared_error = 0.0\nsamples = 2\nvalue = 0.561", fillcolor="#f3c4a2"] ;
743 -> 744 ;
745 [label="squared_error = 0.0\nsamples = 1\nvalue = 0.573", fillcolor="#f2c29f"] ;
744 -> 745 ;
746 [label="squared_error = -0.0\nsamples = 1\nvalue = 0.55", fillcolor="#f3c5a4"] ;
744 -> 746 ;
747 [label="thARC <= 0.9\nsquared_error = 0.0\nsamples = 3\nvalue = 0.617", fillcolor="#f1bb94"] ;
743 -> 747 ;
748 [label="nSub <= 2.375\nsquared_error = 0.0\nsamples = 2\nvalue = 0.61", fillcolor="#f1bc96"] ;
747 -> 748 ;
749 [label="squared_error = 0.0\nsamples = 1\nvalue = 0.591", fillcolor="#f2bf9a"] ;
748 -> 749 ;
750 [label="squared_error = 0.0\nsamples = 1\nvalue = 0.629", fillcolor="#f1b992"] ;
748 -> 750 ;
751 [label="squared_error = -0.0\nsamples = 1\nvalue = 0.631", fillcolor="#f1b991"] ;
747 -> 751 ;
752 [label="nARC <= 3.125\nsquared_error = 0.002\nsamples = 38\nvalue = 0.756", fillcolor="#eda673"] ;
706 -> 752 ;
753 [label="nARC <= 2.875\nsquared_error = 0.001\nsamples = 25\nvalue = 0.781", fillcolor="#eca26d"] ;
752 -> 753 ;
754 [label="thARC <= 0.7\nsquared_error = 0.001\nsamples = 12\nvalue = 0.804", fillcolor="#eb9f68"] ;
753 -> 754 ;
755 [label="thARC <= 0.5\nsquared_error = 0.0\nsamples = 7\nvalue = 0.787", fillcolor="#eca16c"] ;
754 -> 755 ;
756 [label="nSub <= 3.125\nsquared_error = 0.0\nsamples = 3\nvalue = 0.773", fillcolor="#eca36f"] ;
755 -> 756 ;
757 [label="nSub <= 2.875\nsquared_error = 0.0\nsamples = 2\nvalue = 0.778", fillcolor="#eca36e"] ;
756 -> 757 ;
758 [label="squared_error = 0.0\nsamples = 1\nvalue = 0.782", fillcolor="#eca26d"] ;
757 -> 758 ;
759 [label="squared_error = 0.0\nsamples = 1\nvalue = 0.774", fillcolor="#eca36f"] ;
757 -> 759 ;
760 [label="squared_error = -0.0\nsamples = 1\nvalue = 0.764", fillcolor="#eca571"] ;
756 -> 760 ;
761 [label="nSub <= 3.125\nsquared_error = 0.0\nsamples = 4\nvalue = 0.797", fillcolor="#eba06a"] ;
755 -> 761 ;
762 [label="nSub <= 2.875\nsquared_error = 0.0\nsamples = 2\nvalue = 0.788", fillcolor="#eca16b"] ;
761 -> 762 ;
763 [label="squared_error = 0.0\nsamples = 1\nvalue = 0.782", fillcolor="#eca26d"] ;
762 -> 763 ;
764 [label="squared_error = 0.0\nsamples = 1\nvalue = 0.794", fillcolor="#eba06a"] ;
762 -> 764 ;
765 [label="nSub <= 3.375\nsquared_error = 0.0\nsamples = 2\nvalue = 0.805", fillcolor="#eb9f68"] ;
761 -> 765 ;
766 [label="squared_error = 0.0\nsamples = 1\nvalue = 0.802", fillcolor="#eb9f68"] ;
765 -> 766 ;
767 [label="squared_error = -0.0\nsamples = 1\nvalue = 0.808", fillcolor="#eb9e67"] ;
765 -> 767 ;
768 [label="nSub <= 3.0\nsquared_error = 0.001\nsamples = 5\nvalue = 0.827", fillcolor="#ea9b62"] ;
754 -> 768 ;
769 [label="squared_error = 0.0\nsamples = 1\nvalue = 0.782", fillcolor="#eca26d"] ;
768 -> 769 ;
770 [label="nSub <= 3.375\nsquared_error = 0.0\nsamples = 4\nvalue = 0.839", fillcolor="#ea9a60"] ;
768 -> 770 ;
771 [label="thARC <= 0.9\nsquared_error = 0.0\nsamples = 2\nvalue = 0.829", fillcolor="#ea9b62"] ;
770 -> 771 ;
772 [label="squared_error = 0.0\nsamples = 1\nvalue = 0.829", fillcolor="#ea9b62"] ;
771 -> 772 ;
773 [label="squared_error = 0.0\nsamples = 1\nvalue = 0.83", fillcolor="#ea9b62"] ;
771 -> 773 ;
774 [label="thARC <= 0.9\nsquared_error = 0.0\nsamples = 2\nvalue = 0.848", fillcolor="#ea985d"] ;
770 -> 774 ;
775 [label="squared_error = 0.0\nsamples = 1\nvalue = 0.847", fillcolor="#ea985d"] ;
774 -> 775 ;
776 [label="squared_error = 0.0\nsamples = 1\nvalue = 0.848", fillcolor="#ea985d"] ;
774 -> 776 ;
777 [label="nSub <= 3.125\nsquared_error = 0.0\nsamples = 13\nvalue = 0.759", fillcolor="#eda672"] ;
753 -> 777 ;
778 [label="nSub <= 2.875\nsquared_error = 0.0\nsamples = 5\nvalue = 0.741", fillcolor="#eda877"] ;
777 -> 778 ;
779 [label="thARC <= 0.8\nsquared_error = 0.0\nsamples = 2\nvalue = 0.728", fillcolor="#eeaa7a"] ;
778 -> 779 ;
780 [label="squared_error = 0.0\nsamples = 1\nvalue = 0.731", fillcolor="#edaa79"] ;
779 -> 780 ;
781 [label="squared_error = -0.0\nsamples = 1\nvalue = 0.726", fillcolor="#eeab7a"] ;
779 -> 781 ;
782 [label="thARC <= 0.5\nsquared_error = 0.0\nsamples = 3\nvalue = 0.75", fillcolor="#eda775"] ;
778 -> 782 ;
783 [label="squared_error = 0.0\nsamples = 1\nvalue = 0.75", fillcolor="#eda775"] ;
782 -> 783 ;
784 [label="thARC <= 0.7\nsquared_error = 0.0\nsamples = 2\nvalue = 0.75", fillcolor="#eda775"] ;
782 -> 784 ;
785 [label="squared_error = 0.0\nsamples = 1\nvalue = 0.75", fillcolor="#eda775"] ;
784 -> 785 ;
786 [label="squared_error = 0.0\nsamples = 1\nvalue = 0.75", fillcolor="#eda775"] ;
784 -> 786 ;
787 [label="thARC <= 0.5\nsquared_error = 0.0\nsamples = 8\nvalue = 0.77", fillcolor="#eca470"] ;
777 -> 787 ;
788 [label="nSub <= 3.375\nsquared_error = 0.0\nsamples = 2\nvalue = 0.743", fillcolor="#eda876"] ;
787 -> 788 ;
789 [label="squared_error = 0.0\nsamples = 1\nvalue = 0.746", fillcolor="#eda876"] ;
788 -> 789 ;
790 [label="squared_error = 0.0\nsamples = 1\nvalue = 0.74", fillcolor="#eda977"] ;
788 -> 790 ;
791 [label="nSub <= 3.375\nsquared_error = 0.0\nsamples = 6\nvalue = 0.78", fillcolor="#eca26e"] ;
787 -> 791 ;
792 [label="thARC <= 0.7\nsquared_error = 0.0\nsamples = 3\nvalue = 0.771", fillcolor="#eca470"] ;
791 -> 792 ;
793 [label="squared_error = 0.0\nsamples = 1\nvalue = 0.766", fillcolor="#eca571"] ;
792 -> 793 ;
794 [label="thARC <= 0.9\nsquared_error = 0.0\nsamples = 2\nvalue = 0.773", fillcolor="#eca36f"] ;
792 -> 794 ;
795 [label="squared_error = 0.0\nsamples = 1\nvalue = 0.776", fillcolor="#eca36e"] ;
794 -> 795 ;
796 [label="squared_error = -0.0\nsamples = 1\nvalue = 0.771", fillcolor="#eca470"] ;
794 -> 796 ;
797 [label="thARC <= 0.7\nsquared_error = 0.0\nsamples = 3\nvalue = 0.788", fillcolor="#eca16b"] ;
791 -> 797 ;
798 [label="squared_error = 0.0\nsamples = 1\nvalue = 0.779", fillcolor="#eca36e"] ;
797 -> 798 ;
799 [label="thARC <= 0.9\nsquared_error = 0.0\nsamples = 2\nvalue = 0.793", fillcolor="#eba06a"] ;
797 -> 799 ;
800 [label="squared_error = 0.0\nsamples = 1\nvalue = 0.798", fillcolor="#eba069"] ;
799 -> 800 ;
801 [label="squared_error = -0.0\nsamples = 1\nvalue = 0.788", fillcolor="#eca16c"] ;
799 -> 801 ;
802 [label="nSub <= 3.125\nsquared_error = 0.001\nsamples = 13\nvalue = 0.709", fillcolor="#eead7e"] ;
752 -> 802 ;
803 [label="thARC <= 0.5\nsquared_error = 0.0\nsamples = 7\nvalue = 0.692", fillcolor="#efb083"] ;
802 -> 803 ;
804 [label="nSub <= 2.875\nsquared_error = 0.0\nsamples = 2\nvalue = 0.715", fillcolor="#eeac7d"] ;
803 -> 804 ;
805 [label="squared_error = 0.0\nsamples = 1\nvalue = 0.712", fillcolor="#eead7e"] ;
804 -> 805 ;
806 [label="squared_error = 0.0\nsamples = 1\nvalue = 0.718", fillcolor="#eeac7c"] ;
804 -> 806 ;
807 [label="nSub <= 2.875\nsquared_error = 0.0\nsamples = 5\nvalue = 0.683", fillcolor="#efb185"] ;
803 -> 807 ;
808 [label="thARC <= 0.9\nsquared_error = 0.0\nsamples = 3\nvalue = 0.673", fillcolor="#efb387"] ;
807 -> 808 ;
809 [label="thARC <= 0.7\nsquared_error = 0.0\nsamples = 2\nvalue = 0.668", fillcolor="#efb388"] ;
808 -> 809 ;
810 [label="squared_error = 0.0\nsamples = 1\nvalue = 0.673", fillcolor="#efb387"] ;
809 -> 810 ;
811 [label="squared_error = -0.0\nsamples = 1\nvalue = 0.662", fillcolor="#f0b48a"] ;
809 -> 811 ;
812 [label="squared_error = 0.0\nsamples = 1\nvalue = 0.683", fillcolor="#efb185"] ;
808 -> 812 ;
813 [label="thARC <= 0.9\nsquared_error = 0.0\nsamples = 2\nvalue = 0.698", fillcolor="#eeaf81"] ;
807 -> 813 ;
814 [label="squared_error = 0.0\nsamples = 1\nvalue = 0.693", fillcolor="#efb082"] ;
813 -> 814 ;
815 [label="squared_error = 0.0\nsamples = 1\nvalue = 0.703", fillcolor="#eeae80"] ;
813 -> 815 ;
816 [label="nSub <= 3.375\nsquared_error = 0.0\nsamples = 6\nvalue = 0.729", fillcolor="#edaa7a"] ;
802 -> 816 ;
817 [label="thARC <= 0.7\nsquared_error = 0.0\nsamples = 3\nvalue = 0.72", fillcolor="#eeac7c"] ;
816 -> 817 ;
818 [label="squared_error = 0.0\nsamples = 1\nvalue = 0.72", fillcolor="#eeac7c"] ;
817 -> 818 ;
819 [label="thARC <= 0.9\nsquared_error = 0.0\nsamples = 2\nvalue = 0.72", fillcolor="#eeac7c"] ;
817 -> 819 ;
820 [label="squared_error = 0.0\nsamples = 1\nvalue = 0.72", fillcolor="#eeac7c"] ;
819 -> 820 ;
821 [label="squared_error = -0.0\nsamples = 1\nvalue = 0.72", fillcolor="#eeac7c"] ;
819 -> 821 ;
822 [label="thARC <= 0.9\nsquared_error = 0.0\nsamples = 3\nvalue = 0.739", fillcolor="#eda977"] ;
816 -> 822 ;
823 [label="thARC <= 0.7\nsquared_error = 0.0\nsamples = 2\nvalue = 0.741", fillcolor="#eda877"] ;
822 -> 823 ;
824 [label="squared_error = 0.0\nsamples = 1\nvalue = 0.738", fillcolor="#eda977"] ;
823 -> 824 ;
825 [label="squared_error = -0.0\nsamples = 1\nvalue = 0.744", fillcolor="#eda876"] ;
823 -> 825 ;
826 [label="squared_error = -0.0\nsamples = 1\nvalue = 0.734", fillcolor="#eda979"] ;
822 -> 826 ;
827 [label="thARC <= 0.5\nsquared_error = 0.012\nsamples = 256\nvalue = 0.705", fillcolor="#eeae7f"] ;
1 -> 827 ;
828 [label="nSub <= 4.375\nsquared_error = 0.002\nsamples = 129\nvalue = 0.635", fillcolor="#f0b890"] ;
827 -> 828 ;
829 [label="thARC <= 0.3\nsquared_error = 0.001\nsamples = 66\nvalue = 0.661", fillcolor="#f0b48a"] ;
828 -> 829 ;
830 [label="nSub <= 3.875\nsquared_error = 0.0\nsamples = 43\nvalue = 0.645", fillcolor="#f0b78e"] ;
829 -> 830 ;
831 [label="thARC <= 0.1\nsquared_error = 0.0\nsamples = 12\nvalue = 0.667", fillcolor="#efb488"] ;
830 -> 831 ;
832 [label="squared_error = 0.0\nsamples = 9\nvalue = 0.665", fillcolor="#efb489"] ;
831 -> 832 ;
833 [label="nARC <= 2.0\nsquared_error = 0.0\nsamples = 3\nvalue = 0.675", fillcolor="#efb287"] ;
831 -> 833 ;
834 [label="nARC <= 1.375\nsquared_error = 0.0\nsamples = 2\nvalue = 0.67", fillcolor="#efb388"] ;
833 -> 834 ;
835 [label="squared_error = 0.0\nsamples = 1\nvalue = 0.668", fillcolor="#efb388"] ;
834 -> 835 ;
836 [label="squared_error = -0.0\nsamples = 1\nvalue = 0.672", fillcolor="#efb387"] ;
834 -> 836 ;
837 [label="squared_error = -0.0\nsamples = 1\nvalue = 0.684", fillcolor="#efb184"] ;
833 -> 837 ;
838 [label="nSub <= 4.125\nsquared_error = 0.0\nsamples = 31\nvalue = 0.637", fillcolor="#f0b890"] ;
830 -> 838 ;
839 [label="thARC <= 0.1\nsquared_error = 0.0\nsamples = 16\nvalue = 0.646", fillcolor="#f0b78d"] ;
838 -> 839 ;
840 [label="squared_error = -0.0\nsamples = 9\nvalue = 0.64", fillcolor="#f0b88f"] ;
839 -> 840 ;
841 [label="nARC <= 1.625\nsquared_error = 0.0\nsamples = 7\nvalue = 0.654", fillcolor="#f0b68c"] ;
839 -> 841 ;
842 [label="nARC <= 1.125\nsquared_error = 0.0\nsamples = 2\nvalue = 0.642", fillcolor="#f0b78e"] ;
841 -> 842 ;
843 [label="squared_error = 0.0\nsamples = 1\nvalue = 0.64", fillcolor="#f0b88f"] ;
842 -> 843 ;
844 [label="squared_error = -0.0\nsamples = 1\nvalue = 0.643", fillcolor="#f0b78e"] ;
842 -> 844 ;
845 [label="nARC <= 2.375\nsquared_error = 0.0\nsamples = 5\nvalue = 0.659", fillcolor="#f0b58a"] ;
841 -> 845 ;
846 [label="nARC <= 2.125\nsquared_error = 0.0\nsamples = 2\nvalue = 0.656", fillcolor="#f0b58b"] ;
845 -> 846 ;
847 [label="squared_error = 0.0\nsamples = 1\nvalue = 0.655", fillcolor="#f0b58b"] ;
846 -> 847 ;
848 [label="squared_error = 0.0\nsamples = 1\nvalue = 0.658", fillcolor="#f0b58b"] ;
846 -> 848 ;
849 [label="nARC <= 3.0\nsquared_error = 0.0\nsamples = 3\nvalue = 0.661", fillcolor="#f0b48a"] ;
845 -> 849 ;
850 [label="nARC <= 2.625\nsquared_error = 0.0\nsamples = 2\nvalue = 0.661", fillcolor="#f0b48a"] ;
849 -> 850 ;
851 [label="squared_error = 0.0\nsamples = 1\nvalue = 0.661", fillcolor="#f0b58a"] ;
850 -> 851 ;
852 [label="squared_error = 0.0\nsamples = 1\nvalue = 0.662", fillcolor="#f0b48a"] ;
850 -> 852 ;
853 [label="squared_error = -0.0\nsamples = 1\nvalue = 0.66", fillcolor="#f0b58a"] ;
849 -> 853 ;
854 [label="thARC <= 0.1\nsquared_error = 0.0\nsamples = 15\nvalue = 0.626", fillcolor="#f1ba92"] ;
838 -> 854 ;
855 [label="squared_error = -0.0\nsamples = 6\nvalue = 0.617", fillcolor="#f1bb94"] ;
854 -> 855 ;
856 [label="nARC <= 1.875\nsquared_error = 0.0\nsamples = 9\nvalue = 0.633", fillcolor="#f1b991"] ;
854 -> 856 ;
857 [label="nARC <= 1.5\nsquared_error = 0.0\nsamples = 3\nvalue = 0.622", fillcolor="#f1ba93"] ;
856 -> 857 ;
858 [label="nARC <= 1.125\nsquared_error = 0.0\nsamples = 2\nvalue = 0.619", fillcolor="#f1bb94"] ;
857 -> 858 ;
859 [label="squared_error = 0.0\nsamples = 1\nvalue = 0.617", fillcolor="#f1bb94"] ;
858 -> 859 ;
860 [label="squared_error = 0.0\nsamples = 1\nvalue = 0.62", fillcolor="#f1bb94"] ;
858 -> 860 ;
861 [label="squared_error = -0.0\nsamples = 1\nvalue = 0.628", fillcolor="#f1ba92"] ;
857 -> 861 ;
862 [label="nARC <= 2.375\nsquared_error = 0.0\nsamples = 6\nvalue = 0.638", fillcolor="#f0b88f"] ;
856 -> 862 ;
863 [label="nARC <= 2.125\nsquared_error = 0.0\nsamples = 2\nvalue = 0.634", fillcolor="#f0b990"] ;
862 -> 863 ;
864 [label="squared_error = 0.0\nsamples = 1\nvalue = 0.632", fillcolor="#f1b991"] ;
863 -> 864 ;
865 [label="squared_error = -0.0\nsamples = 1\nvalue = 0.635", fillcolor="#f0b890"] ;
863 -> 865 ;
866 [label="nARC <= 2.625\nsquared_error = 0.0\nsamples = 4\nvalue = 0.641", fillcolor="#f0b88f"] ;
862 -> 866 ;
867 [label="squared_error = 0.0\nsamples = 1\nvalue = 0.639", fillcolor="#f0b88f"] ;
866 -> 867 ;
868 [label="nARC <= 2.875\nsquared_error = 0.0\nsamples = 3\nvalue = 0.641", fillcolor="#f0b78f"] ;
866 -> 868 ;
869 [label="squared_error = 0.0\nsamples = 1\nvalue = 0.641", fillcolor="#f0b88f"] ;
868 -> 869 ;
870 [label="nARC <= 3.125\nsquared_error = 0.0\nsamples = 2\nvalue = 0.642", fillcolor="#f0b78f"] ;
868 -> 870 ;
871 [label="squared_error = 0.0\nsamples = 1\nvalue = 0.642", fillcolor="#f0b78e"] ;
870 -> 871 ;
872 [label="squared_error = 0.0\nsamples = 1\nvalue = 0.641", fillcolor="#f0b78f"] ;
870 -> 872 ;
873 [label="nARC <= 1.875\nsquared_error = 0.001\nsamples = 23\nvalue = 0.691", fillcolor="#efb083"] ;
829 -> 873 ;
874 [label="nSub <= 4.125\nsquared_error = 0.001\nsamples = 9\nvalue = 0.656", fillcolor="#f0b58b"] ;
873 -> 874 ;
875 [label="nARC <= 1.125\nsquared_error = 0.0\nsamples = 5\nvalue = 0.671", fillcolor="#efb387"] ;
874 -> 875 ;
876 [label="nSub <= 3.875\nsquared_error = 0.0\nsamples = 2\nvalue = 0.653", fillcolor="#f0b68c"] ;
875 -> 876 ;
877 [label="squared_error = 0.0\nsamples = 1\nvalue = 0.665", fillcolor="#efb489"] ;
876 -> 877 ;
878 [label="squared_error = 0.0\nsamples = 1\nvalue = 0.64", fillcolor="#f0b88f"] ;
876 -> 878 ;
879 [label="nARC <= 1.375\nsquared_error = 0.0\nsamples = 3\nvalue = 0.684", fillcolor="#efb184"] ;
875 -> 879 ;
880 [label="squared_error = 0.0\nsamples = 1\nvalue = 0.678", fillcolor="#efb286"] ;
879 -> 880 ;
881 [label="nSub <= 3.875\nsquared_error = 0.0\nsamples = 2\nvalue = 0.687", fillcolor="#efb084"] ;
879 -> 881 ;
882 [label="squared_error = 0.0\nsamples = 1\nvalue = 0.692", fillcolor="#efb083"] ;
881 -> 882 ;
883 [label="squared_error = -0.0\nsamples = 1\nvalue = 0.683", fillcolor="#efb185"] ;
881 -> 883 ;
884 [label="nARC <= 1.375\nsquared_error = 0.0\nsamples = 4\nvalue = 0.638", fillcolor="#f0b88f"] ;
874 -> 884 ;
885 [label="nARC <= 1.125\nsquared_error = 0.0\nsamples = 2\nvalue = 0.623", fillcolor="#f1ba93"] ;
884 -> 885 ;
886 [label="squared_error = 0.0\nsamples = 1\nvalue = 0.617", fillcolor="#f1bb94"] ;
885 -> 886 ;
887 [label="squared_error = 0.0\nsamples = 1\nvalue = 0.63", fillcolor="#f1b991"] ;
885 -> 887 ;
888 [label="nARC <= 1.625\nsquared_error = 0.0\nsamples = 2\nvalue = 0.652", fillcolor="#f0b68c"] ;
884 -> 888 ;
889 [label="squared_error = 0.0\nsamples = 1\nvalue = 0.644", fillcolor="#f0b78e"] ;
888 -> 889 ;
890 [label="squared_error = 0.0\nsamples = 1\nvalue = 0.66", fillcolor="#f0b58a"] ;
888 -> 890 ;
891 [label="nSub <= 4.125\nsquared_error = 0.0\nsamples = 14\nvalue = 0.713", fillcolor="#eead7d"] ;
873 -> 891 ;
892 [label="nARC <= 2.375\nsquared_error = 0.0\nsamples = 9\nvalue = 0.722", fillcolor="#eeab7b"] ;
891 -> 892 ;
893 [label="nSub <= 3.875\nsquared_error = 0.0\nsamples = 3\nvalue = 0.709", fillcolor="#eead7e"] ;
892 -> 893 ;
894 [label="squared_error = 0.0\nsamples = 1\nvalue = 0.72", fillcolor="#eeab7c"] ;
893 -> 894 ;
895 [label="nARC <= 2.125\nsquared_error = 0.0\nsamples = 2\nvalue = 0.704", fillcolor="#eeae80"] ;
893 -> 895 ;
896 [label="squared_error = 0.0\nsamples = 1\nvalue = 0.698", fillcolor="#eeaf81"] ;
895 -> 896 ;
897 [label="squared_error = 0.0\nsamples = 1\nvalue = 0.711", fillcolor="#eead7e"] ;
895 -> 897 ;
898 [label="nARC <= 3.125\nsquared_error = 0.0\nsamples = 6\nvalue = 0.728", fillcolor="#eeaa7a"] ;
892 -> 898 ;
899 [label="nSub <= 3.875\nsquared_error = 0.0\nsamples = 5\nvalue = 0.731", fillcolor="#edaa79"] ;
898 -> 899 ;
900 [label="nARC <= 2.875\nsquared_error = 0.0\nsamples = 3\nvalue = 0.736", fillcolor="#eda978"] ;
899 -> 900 ;
901 [label="nARC <= 2.625\nsquared_error = 0.0\nsamples = 2\nvalue = 0.738", fillcolor="#eda977"] ;
900 -> 901 ;
902 [label="squared_error = 0.0\nsamples = 1\nvalue = 0.738", fillcolor="#eda978"] ;
901 -> 902 ;
903 [label="squared_error = -0.0\nsamples = 1\nvalue = 0.738", fillcolor="#eda977"] ;
901 -> 903 ;
904 [label="squared_error = 0.0\nsamples = 1\nvalue = 0.732", fillcolor="#edaa79"] ;
900 -> 904 ;
905 [label="nARC <= 2.625\nsquared_error = 0.0\nsamples = 2\nvalue = 0.723", fillcolor="#eeab7b"] ;
899 -> 905 ;
906 [label="squared_error = 0.0\nsamples = 1\nvalue = 0.72", fillcolor="#eeab7c"] ;
905 -> 906 ;
907 [label="squared_error = 0.0\nsamples = 1\nvalue = 0.725", fillcolor="#eeab7b"] ;
905 -> 907 ;
908 [label="squared_error = -0.0\nsamples = 1\nvalue = 0.717", fillcolor="#eeac7d"] ;
898 -> 908 ;
909 [label="nARC <= 2.375\nsquared_error = 0.0\nsamples = 5\nvalue = 0.698", fillcolor="#eeaf81"] ;
891 -> 909 ;
910 [label="nARC <= 2.125\nsquared_error = 0.0\nsamples = 2\nvalue = 0.684", fillcolor="#efb185"] ;
909 -> 910 ;
911 [label="squared_error = 0.0\nsamples = 1\nvalue = 0.676", fillcolor="#efb286"] ;
910 -> 911 ;
912 [label="squared_error = 0.0\nsamples = 1\nvalue = 0.691", fillcolor="#efb083"] ;
910 -> 912 ;
913 [label="nARC <= 2.625\nsquared_error = 0.0\nsamples = 3\nvalue = 0.707", fillcolor="#eead7f"] ;
909 -> 913 ;
914 [label="squared_error = 0.0\nsamples = 1\nvalue = 0.703", fillcolor="#eeae80"] ;
913 -> 914 ;
915 [label="nARC <= 3.0\nsquared_error = 0.0\nsamples = 2\nvalue = 0.709", fillcolor="#eead7e"] ;
913 -> 915 ;
916 [label="squared_error = 0.0\nsamples = 1\nvalue = 0.711", fillcolor="#eead7e"] ;
915 -> 916 ;
917 [label="squared_error = 0.0\nsamples = 1\nvalue = 0.707", fillcolor="#eead7f"] ;
915 -> 917 ;
918 [label="thARC <= 0.3\nsquared_error = 0.002\nsamples = 63\nvalue = 0.607", fillcolor="#f1bd97"] ;
828 -> 918 ;
919 [label="nSub <= 4.625\nsquared_error = 0.0\nsamples = 41\nvalue = 0.585", fillcolor="#f2c09c"] ;
918 -> 919 ;
920 [label="thARC <= 0.1\nsquared_error = 0.0\nsamples = 15\nvalue = 0.602", fillcolor="#f1bd98"] ;
919 -> 920 ;
921 [label="squared_error = -0.0\nsamples = 9\nvalue = 0.595", fillcolor="#f2be9a"] ;
920 -> 921 ;
922 [label="nARC <= 2.25\nsquared_error = 0.0\nsamples = 6\nvalue = 0.612", fillcolor="#f1bc96"] ;
920 -> 922 ;
923 [label="nARC <= 1.75\nsquared_error = 0.0\nsamples = 3\nvalue = 0.604", fillcolor="#f1bd98"] ;
922 -> 923 ;
924 [label="nARC <= 1.375\nsquared_error = 0.0\nsamples = 2\nvalue = 0.6", fillcolor="#f2be98"] ;
923 -> 924 ;
925 [label="squared_error = 0.0\nsamples = 1\nvalue = 0.598", fillcolor="#f2be99"] ;
924 -> 925 ;
926 [label="squared_error = -0.0\nsamples = 1\nvalue = 0.602", fillcolor="#f1bd98"] ;
924 -> 926 ;
927 [label="squared_error = 0.0\nsamples = 1\nvalue = 0.61", fillcolor="#f1bc96"] ;
923 -> 927 ;
928 [label="nARC <= 2.625\nsquared_error = 0.0\nsamples = 3\nvalue = 0.62", fillcolor="#f1bb94"] ;
922 -> 928 ;
929 [label="squared_error = 0.0\nsamples = 1\nvalue = 0.618", fillcolor="#f1bb94"] ;
928 -> 929 ;
930 [label="nARC <= 3.0\nsquared_error = 0.0\nsamples = 2\nvalue = 0.622", fillcolor="#f1ba93"] ;
928 -> 930 ;
931 [label="squared_error = 0.0\nsamples = 1\nvalue = 0.621", fillcolor="#f1bb94"] ;
930 -> 931 ;
932 [label="squared_error = 0.0\nsamples = 1\nvalue = 0.623", fillcolor="#f1ba93"] ;
930 -> 932 ;
933 [label="nSub <= 4.875\nsquared_error = 0.0\nsamples = 26\nvalue = 0.574", fillcolor="#f2c29f"] ;
919 -> 933 ;
934 [label="thARC <= 0.1\nsquared_error = 0.0\nsamples = 14\nvalue = 0.583", fillcolor="#f2c09d"] ;
933 -> 934 ;
935 [label="squared_error = 0.0\nsamples = 7\nvalue = 0.575", fillcolor="#f2c29e"] ;
934 -> 935 ;
936 [label="nARC <= 2.125\nsquared_error = 0.0\nsamples = 7\nvalue = 0.59", fillcolor="#f2bf9b"] ;
934 -> 936 ;
937 [label="nARC <= 1.625\nsquared_error = 0.0\nsamples = 4\nvalue = 0.584", fillcolor="#f2c09c"] ;
936 -> 937 ;
938 [label="nARC <= 1.375\nsquared_error = 0.0\nsamples = 2\nvalue = 0.58", fillcolor="#f2c19d"] ;
937 -> 938 ;
939 [label="squared_error = 0.0\nsamples = 1\nvalue = 0.578", fillcolor="#f2c19e"] ;
938 -> 939 ;
940 [label="squared_error = -0.0\nsamples = 1\nvalue = 0.582", fillcolor="#f2c19d"] ;
938 -> 940 ;
941 [label="nARC <= 1.875\nsquared_error = 0.0\nsamples = 2\nvalue = 0.588", fillcolor="#f2c09b"] ;
937 -> 941 ;
942 [label="squared_error = 0.0\nsamples = 1\nvalue = 0.586", fillcolor="#f2c09c"] ;
941 -> 942 ;
943 [label="squared_error = -0.0\nsamples = 1\nvalue = 0.59", fillcolor="#f2bf9b"] ;
941 -> 943 ;
944 [label="nARC <= 2.75\nsquared_error = 0.0\nsamples = 3\nvalue = 0.599", fillcolor="#f2be99"] ;
936 -> 944 ;
945 [label="nARC <= 2.375\nsquared_error = 0.0\nsamples = 2\nvalue = 0.596", fillcolor="#f2be99"] ;
944 -> 945 ;
946 [label="squared_error = 0.0\nsamples = 1\nvalue = 0.594", fillcolor="#f2bf9a"] ;
945 -> 946 ;
947 [label="squared_error = -0.0\nsamples = 1\nvalue = 0.598", fillcolor="#f2be99"] ;
945 -> 947 ;
